{"learner":{"attributes":{"scikit_learn":"{\"_estimator_type\": \"classifier\"}"},"feature_names":["vehicle_density","avg_vehicle_speed","speed_std","lane_occupancy","queue_length","edge_density","optical_flow_mag","shadow_fraction","time_of_day_norm","road_width_norm"],"feature_types":["float","float","float","float","float","float","float","float","float","float"],"gradient_booster":{"model":{"cats":{"enc":[],"feature_segments":[],"sorted_idx":[]},"gbtree_model_param":{"num_parallel_tree":"1","num_trees":"300"},"iteration_indptr":[0,1,2,3,4,5,6,7,8,9,10,11,12,13,14,15,16,17,18,19,20,21,22,23,24,25,26,27,28,29,30,31,32,33,34,35,36,37,38,39,40,41,42,43,44,45,46,47,48,49,50,51,52,53,54,55,56,57,58,59,60,61,62,63,64,65,66,67,68,69,70,71,72,73,74,75,76,77,78,79,80,81,82,83,84,85,86,87,88,89,90,91,92,93,94,95,96,97,98,99,100,101,102,103,104,105,106,107,108,109,110,111,112,113,114,115,116,117,118,119,120,121,122,123,124,125,126,127,128,129,130,131,132,133,134,135,136,137,138,139,140,141,142,143,144,145,146,147,148,149,150,151,152,153,154,155,156,157,158,159,160,161,162,163,164,165,166,167,168,169,170,171,172,173,174,175,176,177,178,179,180,181,182,183,184,185,186,187,188,189,190,191,192,193,194,195,196,197,198,199,200,201,202,203,204,205,206,207,208,209,210,211,212,213,214,215,216,217,218,219,220,221,222,223,224,225,226,227,228,229,230,231,232,233,234,235,236,237,238,239,240,241,242,243,244,245,246,247,248,249,250,251,252,253,254,255,256,257,258,259,260,261,262,263,264,265,266,267,268,269,270,271,272,273,274,275,276,277,278,279,280,281,282,283,284,285,286,287,288,289,290,291,292,293,294,295,296,297,298,299,300],"tree_info":[0,0,0,0,0,0,0,0,0,0,0,0,0,0,0,0,0,0,0,0,0,0,0,0,0,0,0,0,0,0,0,0,0,0,0,0,0,0,0,0,0,0,0,0,0,0,0,0,0,0,0,0,0,0,0,0,0,0,0,0,0,0,0,0,0,0,0,0,0,0,0,0,0,0,0,0,0,0,0,0,0,0,0,0,0,0,0,0,0,0,0,0,0,0,0,0,0,0,0,0,0,0,0,0,0,0,0,0,0,0,0,0,0,0,0,0,0,0,0,0,0,0,0,0,0,0,0,0,0,0,0,0,0,0,0,0,0,0,0,0,0,0,0,0,0,0,0,0,0,0,0,0,0,0,0,0,0,0,0,0,0,0,0,0,0,0,0,0,0,0,0,0,0,0,0,0,0,0,0,0,0,0,0,0,0,0,0,0,0,0,0,0,0,0,0,0,0,0,0,0,0,0,0,0,0,0,0,0,0,0,0,0,0,0,0,0,0,0,0,0,0,0,0,0,0,0,0,0,0,0,0,0,0,0,0,0,0,0,0,0,0,0,0,0,0,0,0,0,0,0,0,0,0,0,0,0,0,0,0,0,0,0,0,0,0,0,0,0,0,0,0,0,0,0,0,0,0,0,0,0,0,0,0,0,0,0,0,0,0,0,0,0,0,0,0,0,0,0,0,0],"trees":[{"base_weights":[-9.507615E-3,1.7071369E0,-1.1167456E0,2.0894964E0,8.636715E-1,-1.7576839E-1,-1.5452715E0,1.5314804E0,2.163009E0,2.5109175E-1,1.4189233E0,-6.574955E-1,3.5233915E-1,-1.6463102E0,-7.3822653E-1,1.5865384E0,1.6759777E-2,1.1140584E0,1.09179035E-1,-6.175481E-1,4.836657E-1,1.7067498E-1,1.6171741E0,-7.2905374E-1,3.5971224E-2,1.4843659E-1,8.836671E-1,-1.1974721E0,-8.6579256E-2,-4.352703E-1,-7.367777E-2,1.7191802E0,8.982585E-1,7.913669E-2,-5.586591E-3,1.4717275E-2,-1.0084033E0,1.0618693E0,1.12757355E-1,-6.04534E-1,1.0071943E0,1.1328528E0,9.041957E-2,-1.3676323E-1,-9.2215353E-1,3.0709645E-1,-8.403361E-1,3.363519E-1,7.835532E-2,-1.4393125E0,-7.73412E-1,-6.434244E-1,4.7745362E-1,9.0174966E-2,2.6156945E-2,7.1942466E-3,7.38255E-2,-5.586591E-3,-6.1007954E-2,-7.194243E-3,7.06278E-2,-3.270295E-3,6.63984E-2,1.6759777E-2,-5.763952E-2,6.1452515E-2,1.6759777E-2,6.715934E-4,7.2756246E-2,-2.0185027E-2,3.0235166E-2,-7.4661285E-2,-3.786816E-2,2.490744E-2,-2.4882311E-2,-5.7498515E-2,-2.7447378E-3,5.793451E-2,-1.0085915E-2,-7.7087544E-2,-1.6266458E-2,-8.69565E-3,-5.650858E-2,-4.8913043E-2,4.856184E-3,6.1192878E-2,-3.420523E-2],"categories":[],"categories_nodes":[],"categories_segments":[],"categories_sizes":[],"default_left":[0,0,0,0,0,0,0,0,0,0,0,0,0,0,0,0,0,0,0,0,0,0,0,0,0,0,0,0,0,0,0,0,0,0,0,0,0,0,0,0,0,0,0,0,0,0,0,0,0,0,0,0,0,0,0,0,0,0,0,0,0,0,0,0,0,0,0,0,0,0,0,0,0,0,0,0,0,0,0,0,0,0,0,0,0,0,0],"id":0,"left_children":[1,3,5,7,9,11,13,15,17,19,21,23,25,27,29,31,-1,33,-1,35,37,39,41,43,-1,45,47,49,-1,51,-1,53,55,-1,-1,-1,57,59,61,63,65,67,-1,69,71,73,75,77,-1,79,81,83,85,-1,-1,-1,-1,-1,-1,-1,-1,-1,-1,-1,-1,-1,-1,-1,-1,-1,-1,-1,-1,-1,-1,-1,-1,-1,-1,-1,-1,-1,-1,-1,-1,-1,-1],"loss_changes":[1.1314319E3,7.34693E1,1.4564032E2,3.24646E0,2.4986404E1,2.9323997E1,1.9048096E1,9.1970444E-1,5.637207E-1,7.7008114E0,9.342377E0,6.4513245E0,5.8494215E0,6.3482666E0,5.922039E0,3.5465622E-1,0E0,2.8841634E0,0E0,3.2114303E0,6.1988096E0,4.788319E0,1.0466461E0,6.470524E0,0E0,6.7049885E0,5.1239614E0,2.8221054E0,0E0,4.5410695E0,0E0,7.04895E-1,2.16712E0,0E0,0E0,0E0,9.934273E-1,5.021531E0,4.215082E0,2.4318051E0,1.0610485E-1,4.3591557E0,0E0,3.2832587E0,2.9460487E0,5.8051224E0,1.3839092E0,4.509151E0,0E0,2.154438E0,3.2463322E0,4.700295E0,4.9229445E0,0E0,0E0,0E0,0E0,0E0,0E0,0E0,0E0,0E0,0E0,0E0,0E0,0E0,0E0,0E0,0E0,0E0,0E0,0E0,0E0,0E0,0E0,0E0,0E0,0E0,0E0,0E0,0E0,0E0,0E0,0E0,0E0,0E0,0E0],"parents":[2147483647,0,0,1,1,2,2,3,3,4,4,5,5,6,6,7,7,8,8,9,9,10,10,11,11,12,12,13,13,14,14,15,15,17,17,19,19,20,20,21,21,22,22,23,23,25,25,26,26,27,27,29,29,31,31,32,32,36,36,37,37,38,38,39,39,40,40,41,41,43,43,44,44,45,45,46,46,47,47,49,49,50,50,51,51,52,52],"right_children":[2,4,6,8,10,12,14,16,18,20,22,24,26,28,30,32,-1,34,-1,36,38,40,42,44,-1,46,48,50,-1,52,-1,54,56,-1,-1,-1,58,60,62,64,66,68,-1,70,72,74,76,78,-1,80,82,84,86,-1,-1,-1,-1,-1,-1,-1,-1,-1,-1,-1,-1,-1,-1,-1,-1,-1,-1,-1,-1,-1,-1,-1,-1,-1,-1,-1,-1,-1,-1,-1,-1,-1,-1],"split_conditions":[5.457225E1,4.794328E1,6.126191E1,7.9325933E0,7.4799E0,2.9050332E-1,3.132741E-1,8.9223045E-1,3.0576435E-1,5.477312E-1,3.5437495E-1,9.576428E0,4.0927178E-1,6.452058E1,6.858761E1,5.06274E-1,1.6759777E-2,4.7558668E-1,1.09179035E-1,3.453413E-1,4.9593556E-1,4.0325904E0,3.703419E-1,5.1438963E-1,3.5971224E-2,9.291334E0,1.18369875E1,4.61385E0,-8.6579256E-2,8.621344E-1,-7.367777E-2,5.663675E-1,6.8148375E0,7.913669E-2,-5.586591E-3,1.4717275E-2,5.086635E1,2.4973106E-1,1.09010515E1,8.388499E0,2.606512E-1,5.443167E-1,9.041957E-2,5.030541E-1,1.227933E-1,4.5677873E-1,9.646105E0,7.203168E0,7.835532E-2,2.616497E-1,4.1145873E-1,6.530509E1,9.504291E-1,9.0174966E-2,2.6156945E-2,7.1942466E-3,7.38255E-2,-5.586591E-3,-6.1007954E-2,-7.194243E-3,7.06278E-2,-3.270295E-3,6.63984E-2,1.6759777E-2,-5.763952E-2,6.1452515E-2,1.6759777E-2,6.715934E-4,7.2756246E-2,-2.0185027E-2,3.0235166E-2,-7.4661285E-2,-3.786816E-2,2.490744E-2,-2.4882311E-2,-5.7498515E-2,-2.7447378E-3,5.793451E-2,-1.0085915E-2,-7.7087544E-2,-1.6266458E-2,-8.69565E-3,-5.650858E-2,-4.8913043E-2,4.856184E-3,6.1192878E-2,-3.420523E-2],"split_indices":[1,1,1,4,4,3,3,8,3,9,5,4,3,1,1,6,0,6,0,5,6,2,8,6,0,2,4,2,0,9,0,5,2,0,0,0,1,3,2,4,3,9,0,6,3,5,4,2,0,3,8,1,9,0,0,0,0,0,0,0,0,0,0,0,0,0,0,0,0,0,0,0,0,0,0,0,0,0,0,0,0,0,0,0,0,0,0],"split_type":[0,0,0,0,0,0,0,0,0,0,0,0,0,0,0,0,0,0,0,0,0,0,0,0,0,0,0,0,0,0,0,0,0,0,0,0,0,0,0,0,0,0,0,0,0,0,0,0,0,0,0,0,0,0,0,0,0,0,0,0,0,0,0,0,0,0,0,0,0,0,0,0,0,0,0,0,0,0,0,0,0,0,0,0,0,0,0],"sum_hessian":[5.932575E2,2.324025E2,3.60855E2,1.58895E2,7.35075E1,1.13355E2,2.475E2,2.10375E1,1.378575E2,3.564E1,3.78675E1,5.91525E1,5.42025E1,2.190375E2,2.84625E1,1.98E1,1.2375E0,3.7125E0,1.34145E2,7.1775002E0,2.84625E1,5.445E0,3.24225E1,5.66775E1,2.475E0,4.0095E1,1.41075E1,3.73725E1,1.8166501E2,2.1285E1,7.1775002E0,1.5345E1,4.455E0,2.475E0,1.2375E0,2.2275E0,4.95E0,1.0395E1,1.8067501E1,2.97E0,2.475E0,1.11375E1,2.1285E1,1.43550005E1,4.2322502E1,3.5145E1,4.95E0,8.6625E0,5.445E0,2.2275E1,1.50975E1,1.75725E1,3.7125E0,1.3860001E1,1.485E0,2.475E0,1.98E0,1.2375E0,3.7125E0,2.475E0,7.92E0,1.65825E1,1.485E0,1.2375E0,1.7325001E0,1.2375E0,1.2375E0,2.7225E0,8.415E0,1.089E1,3.4650002E0,7.6725E0,3.465E1,2.8710001E1,6.435E0,3.2175E0,1.7325001E0,2.97E0,5.6925E0,2.00475E1,2.2275E0,6.1875E0,8.91E0,1.188E1,5.6925E0,2.2275E0,1.485E0],"tree_param":{"num_deleted":"0","num_feature":"10","num_nodes":"87","size_leaf_vector":"1"}},{"base_weights":[1.5978325E-2,1.6157049E0,-1.0054373E0,2.5454944E-1,1.8187039E0,-1.3358623E-1,-1.4296122E0,7.271856E-1,-1.9994882E-1,-1.11379854E-1,1.8835716E0,-8.881153E-1,3.0754712E-1,-1.557932E0,-4.91246E-1,-2.8827293E-2,8.82053E-1,6.0889494E-1,-5.7101244E-1,-6.775158E-1,6.423968E-2,1.0242088E-1,1.4607439E0,-3.3155406E-1,-1.049451E0,1.2693846E-1,8.6505383E-1,-1.0713649E0,-1.6597574E0,-2.3946592E-1,-1.2505182E0,7.6053366E-2,3.0596057E-1,-2.0661557E-2,1.1584742E0,-9.849721E-1,7.138013E-1,-6.4690106E-2,1.3292518E-1,1.4990116E0,-7.6630013E-3,-6.285732E-1,3.0744886E-2,-6.6587466E-1,-1.3486813E0,1.0521128E0,-1.8076887E-2,7.173522E-2,1.2167516E0,-7.4176115E-1,-1.3444295E0,-8.32453E-2,-2.5699092E-2,-3.5809082E-1,4.7198076E-2,-3.574663E-3,-7.3699534E-2,-3.5129137E-2,3.0574247E-2,7.079769E-2,1.6351804E-2,-7.2514387E-3,-6.319138E-2,6.05402E-2,-5.1827338E-3,3.8146142E-2,-2.7871046E-2,3.0289134E-2,7.687498E-2,-4.426566E-2,1.4884836E-2,-4.667835E-2,2.1873452E-2,-1.3853204E-3,-7.435097E-2,6.977871E-3,7.202553E-2,-2.7943859E-2,7.6779053E-3,3.1223362E-2,-2.6885992E-2,7.720136E-2,2.5162915E-2,-5.582435E-2,1.4474863E-2,-4.2352922E-2,-7.803806E-2,-3.391361E-2,7.331662E-3],"categories":[],"categories_nodes":[],"categories_segments":[],"categories_sizes":[],"default_left":[0,0,0,0,0,0,0,0,0,0,0,0,0,0,0,0,0,0,0,0,0,0,0,0,0,0,0,0,0,0,0,0,0,0,0,0,0,0,0,0,0,0,0,0,0,0,0,0,0,0,0,0,0,0,0,0,0,0,0,0,0,0,0,0,0,0,0,0,0,0,0,0,0,0,0,0,0,0,0,0,0,0,0,0,0,0,0,0,0],"id":1,"left_children":[1,3,5,7,9,11,13,15,17,19,21,23,25,27,29,-1,31,33,35,37,-1,-1,39,41,43,45,47,49,51,53,55,-1,57,-1,59,61,63,-1,65,67,-1,69,-1,71,73,75,77,79,81,83,85,-1,-1,87,-1,-1,-1,-1,-1,-1,-1,-1,-1,-1,-1,-1,-1,-1,-1,-1,-1,-1,-1,-1,-1,-1,-1,-1,-1,-1,-1,-1,-1,-1,-1,-1,-1,-1,-1],"loss_changes":[9.638536E2,6.3050903E1,1.3295154E2,6.803443E0,2.5233276E1,3.9860218E1,2.8384766E1,3.619875E0,5.3253446E0,6.7536373E0,1.0489685E1,3.6152954E0,7.52223E0,8.750305E0,5.547116E0,0E0,4.7506504E0,3.680433E0,7.0243616E0,3.1440046E0,0E0,0E0,3.7961426E0,3.585874E0,2.976429E0,7.8572145E0,5.0394135E0,2.5665398E0,1.7019653E-1,3.7358713E0,1.838891E0,0E0,3.111355E0,0E0,3.8672972E-1,2.0205574E0,1.5377364E0,0E0,1.9375473E0,1.0109329E0,0E0,2.4411898E0,0E0,5.36109E0,3.2459335E0,2.6108227E0,4.8650336E0,2.5949883E0,2.1810856E0,8.118302E0,8.7558365E-1,0E0,0E0,3.7716978E0,0E0,0E0,0E0,0E0,0E0,0E0,0E0,0E0,0E0,0E0,0E0,0E0,0E0,0E0,0E0,0E0,0E0,0E0,0E0,0E0,0E0,0E0,0E0,0E0,0E0,0E0,0E0,0E0,0E0,0E0,0E0,0E0,0E0,0E0,0E0],"parents":[2147483647,0,0,1,1,2,2,3,3,4,4,5,5,6,6,7,7,8,8,9,9,10,10,11,11,12,12,13,13,14,14,16,16,17,17,18,18,19,19,22,22,23,23,24,24,25,25,26,26,27,27,28,28,29,29,30,30,32,32,34,34,35,35,36,36,38,38,39,39,41,41,43,43,44,44,45,45,46,46,47,47,48,48,49,49,50,50,53,53],"right_children":[2,4,6,8,10,12,14,16,18,20,22,24,26,28,30,-1,32,34,36,38,-1,-1,40,42,44,46,48,50,52,54,56,-1,58,-1,60,62,64,-1,66,68,-1,70,-1,72,74,76,78,80,82,84,86,-1,-1,88,-1,-1,-1,-1,-1,-1,-1,-1,-1,-1,-1,-1,-1,-1,-1,-1,-1,-1,-1,-1,-1,-1,-1,-1,-1,-1,-1,-1,-1,-1,-1,-1,-1,-1,-1],"split_conditions":[5.425282E1,6.098231E0,6.126191E1,5.0615112E1,3.3929405E-1,2.5806665E-1,3.132741E-1,3.3551106E0,3.0386308E-1,5.949299E0,4.6107677E1,5.189643E-1,1.034129E1,6.452058E1,6.898011E1,-2.8827293E-2,4.345221E0,4.535526E0,5.3533253E1,1.4460741E-1,6.423968E-2,1.0242088E-1,3.1863296E-1,2.0661265E-1,1.405651E-1,2.3816023E0,5.3456223E-1,6.302932E-1,3.6483148E-1,6.790347E1,3.2292613E-1,7.6053366E-2,3.726341E-1,-2.0661557E-2,5.2447884E1,3.809694E0,4.820309E0,-6.4690106E-2,5.098096E1,2.106797E0,-7.6630013E-3,5.030541E-1,3.0744886E-2,6.5344983E-1,5.5902195E1,1.0410252E-1,5.425894E0,5.642377E-1,6.302932E-1,3.5293064E-1,6.2662895E1,-8.32453E-2,-2.5699092E-2,6.731253E-1,4.7198076E-2,-3.574663E-3,-7.3699534E-2,-3.5129137E-2,3.0574247E-2,7.079769E-2,1.6351804E-2,-7.2514387E-3,-6.319138E-2,6.05402E-2,-5.1827338E-3,3.8146142E-2,-2.7871046E-2,3.0289134E-2,7.687498E-2,-4.426566E-2,1.4884836E-2,-4.667835E-2,2.1873452E-2,-1.3853204E-3,-7.435097E-2,6.977871E-3,7.202553E-2,-2.7943859E-2,7.6779053E-3,3.1223362E-2,-2.6885992E-2,7.720136E-2,2.5162915E-2,-5.582435E-2,1.4474863E-2,-4.2352922E-2,-7.803806E-2,-3.391361E-2,7.331662E-3],"split_indices":[1,4,1,1,5,3,3,4,8,2,1,6,4,1,1,0,2,4,1,7,0,0,7,7,7,2,6,6,7,1,3,0,5,0,1,4,4,0,1,2,0,6,0,6,1,7,4,8,6,5,1,0,0,6,0,0,0,0,0,0,0,0,0,0,0,0,0,0,0,0,0,0,0,0,0,0,0,0,0,0,0,0,0,0,0,0,0,0,0],"split_type":[0,0,0,0,0,0,0,0,0,0,0,0,0,0,0,0,0,0,0,0,0,0,0,0,0,0,0,0,0,0,0,0,0,0,0,0,0,0,0,0,0,0,0,0,0,0,0,0,0,0,0,0,0,0,0,0,0,0,0,0,0,0,0,0,0,0,0,0,0,0,0,0,0,0,0,0,0,0,0,0,0,0,0,0,0,0,0,0,0],"sum_hessian":[5.8788464E2,2.2886215E2,3.5902246E2,2.99947E1,1.9886746E2,1.1793443E2,2.4108804E2,1.4409832E1,1.5584867E1,6.443055E0,1.9242441E2,4.313745E1,7.479698E1,2.1150488E2,2.9583164E1,1.2408725E0,1.316896E1,4.6996455E0,1.08852215E1,4.950433E0,1.4926226E0,1.3568208E2,5.6742325E1,1.0381015E1,3.2756435E1,5.742227E1,1.7374706E1,3.859625E1,1.7290863E2,2.3203955E1,6.379209E0,5.4658275E0,7.7031326E0,1.73008E0,2.9695654E0,8.409199E0,2.4760225E0,2.4732633E0,2.4771693E0,5.549773E1,1.2445955E0,8.157014E0,2.2240014E0,1.5768484E1,1.6987953E1,6.9333625E0,5.048891E1,5.7065372E0,1.1668169E1,1.917156E1,1.9424688E1,1.7168407E2,1.2245654E0,2.1723806E1,1.4801482E0,1.226771E0,5.152438E0,1.4888399E0,6.2142925E0,1.7306124E0,1.2389529E0,2.474828E0,5.934371E0,1.2405801E0,1.2354423E0,1.2402282E0,1.2369412E0,2.984019E0,5.251371E1,6.4213767E0,1.7356367E0,1.2813547E1,2.9549375E0,1.7241842E0,1.5263768E1,2.4757671E0,4.4575953E0,1.1619893E1,3.886902E1,2.9796112E0,2.7269258E0,7.2010484E0,4.467121E0,1.4001298E1,5.1702633E0,7.377816E0,1.2046873E1,1.3081475E1,8.642331E0],"tree_param":{"num_deleted":"0","num_feature":"10","num_nodes":"89","size_leaf_vector":"1"}},{"base_weights":[-2.4079796E-2,1.5361998E0,-1.0451515E0,1.8851694E0,9.0396863E-1,-2.2718635E-1,-1.4287782E0,5.927875E-1,9.629545E-2,3.7189993E-1,1.3310645E0,-4.033832E-1,6.684635E-1,-1.5325935E0,-7.6184803E-1,6.1860558E-2,1.0152473E-1,1.00704595E-1,1.455841E0,4.4190654E-1,1.4829097E0,-7.174992E-1,-1.4134304E-1,-2.6994474E-2,9.849442E-1,-1.1157671E0,-8.0175415E-2,-4.1370964E-1,-1.2348022E0,-5.5647742E-2,5.391225E-2,-1.0806838E-1,5.6239265E-1,3.2624345E-2,8.5653566E-2,-1.1322873E-1,6.1112143E-2,1.1245032E-2,1.5355487E0,-9.4620156E-1,-1.8326946E-1,5.673762E-2,-2.1219936E-1,-6.2582755E-1,4.2762794E-2,-7.245657E-3,1.1145546E0,-1.1719292E0,-6.9973753E-3,4.0687254E-1,-8.540069E-1,-4.4565418E-1,-6.9045596E-2,3.4689826E-3,-5.250534E-2,4.35093E-2,-3.6834292E-2,3.738591E-2,-3.883407E-2,7.8551136E-2,1.3992781E-2,-1.5130907E-2,-5.2981295E-2,6.122635E-2,-2.053306E-2,-1.4200084E-2,3.0571595E-2,1.2218085E-2,-6.084917E-2,6.281036E-2,3.6705707E-3,-6.2357254E-2,-1.9167911E-2,5.5606812E-2,-7.5651803E-3,-6.0521286E-2,1.0171649E-2,-5.1127285E-2,1.9719748E-2],"categories":[],"categories_nodes":[],"categories_segments":[],"categories_sizes":[],"default_left":[0,0,0,0,0,0,0,0,0,0,0,0,0,0,0,0,0,0,0,0,0,0,0,0,0,0,0,0,0,0,0,0,0,0,0,0,0,0,0,0,0,0,0,0,0,0,0,0,0,0,0,0,0,0,0,0,0,0,0,0,0,0,0,0,0,0,0,0,0,0,0,0,0,0,0,0,0,0,0],"id":2,"left_children":[1,3,5,7,9,11,13,15,-1,17,19,21,23,25,27,-1,29,31,33,35,37,39,41,43,45,47,-1,49,51,-1,-1,53,55,-1,-1,57,-1,-1,59,61,63,-1,65,67,-1,-1,69,71,-1,73,75,77,-1,-1,-1,-1,-1,-1,-1,-1,-1,-1,-1,-1,-1,-1,-1,-1,-1,-1,-1,-1,-1,-1,-1,-1,-1,-1,-1],"loss_changes":[9.3375696E2,4.944745E1,1.10837555E2,6.675293E0,1.867939E1,1.830579E1,1.5516083E1,1.7680976E0,0E0,1.13059E1,5.6118393E0,7.810793E0,4.244566E0,4.3449097E0,5.1606255E0,0E0,6.518533E0,3.1680403E0,4.7805786E-1,3.6885319E0,2.252037E0,5.138151E0,5.092008E0,4.215951E0,2.0941277E0,1.6697121E0,0E0,8.059176E0,1.0104179E0,0E0,0E0,3.9238963E0,4.7192564E0,0E0,0E0,3.8387642E0,0E0,0E0,1.2296982E0,1.8839703E0,5.07168E0,0E0,3.2294848E0,2.729259E0,0E0,0E0,1.6707878E0,1.3904381E0,0E0,3.3690195E0,5.6032286E0,2.1863642E0,0E0,0E0,0E0,0E0,0E0,0E0,0E0,0E0,0E0,0E0,0E0,0E0,0E0,0E0,0E0,0E0,0E0,0E0,0E0,0E0,0E0,0E0,0E0,0E0,0E0,0E0,0E0],"parents":[2147483647,0,0,1,1,2,2,3,3,4,4,5,5,6,6,7,7,9,9,10,10,11,11,12,12,13,13,14,14,16,16,17,17,18,18,19,19,20,20,21,21,22,22,23,23,24,24,25,25,27,27,28,28,31,31,32,32,35,35,38,38,39,39,40,40,42,42,43,43,46,46,47,47,49,49,50,50,51,51],"right_children":[2,4,6,8,10,12,14,16,-1,18,20,22,24,26,28,-1,30,32,34,36,38,40,42,44,46,48,-1,50,52,-1,-1,54,56,-1,-1,58,-1,-1,60,62,64,-1,66,68,-1,-1,70,72,-1,74,76,78,-1,-1,-1,-1,-1,-1,-1,-1,-1,-1,-1,-1,-1,-1,-1,-1,-1,-1,-1,-1,-1,-1,-1,-1,-1,-1,-1],"split_conditions":[5.425282E1,4.6407505E1,6.126191E1,5.768683E0,7.4799E0,1.034129E1,7.1540637E0,3.7390351E0,9.629545E-2,9.219418E0,3.5437495E-1,5.5535274E0,5.740112E-1,6.452058E1,6.663685E1,6.1860558E-2,7.7129087E0,4.1723108E-1,7.564284E-1,1.6425414E-1,4.2323676E-1,6.7717916E-1,4.365229E-1,1.5917899E-1,7.0274055E-2,6.5183115E0,-8.0175415E-2,4.0236634E-1,3.0599735E0,-5.5647742E-2,5.391225E-2,3.9886507E-1,4.944771E-1,3.2624345E-2,8.5653566E-2,8.335836E0,6.1112143E-2,1.1245032E-2,3.142239E-1,5.5989704E1,7.050387E-1,5.673762E-2,2.617096E-1,5.0012475E-1,4.2762794E-2,-7.245657E-3,5.9388973E1,8.107107E0,-6.9973753E-3,7.9934373E0,7.754745E0,1.4683768E0,-6.9045596E-2,3.4689826E-3,-5.250534E-2,4.35093E-2,-3.6834292E-2,3.738591E-2,-3.883407E-2,7.8551136E-2,1.3992781E-2,-1.5130907E-2,-5.2981295E-2,6.122635E-2,-2.053306E-2,-1.4200084E-2,3.0571595E-2,1.2218085E-2,-6.084917E-2,6.281036E-2,3.6705707E-3,-6.2357254E-2,-1.9167911E-2,5.5606812E-2,-7.5651803E-3,-6.0521286E-2,1.0171649E-2,-5.1127285E-2,1.9719748E-2],"split_indices":[1,1,1,4,4,4,4,2,0,2,5,4,9,1,1,0,2,5,9,7,9,8,6,7,8,4,0,8,2,0,0,5,5,0,0,4,0,0,7,1,8,0,7,9,0,0,1,2,0,4,2,2,0,0,0,0,0,0,0,0,0,0,0,0,0,0,0,0,0,0,0,0,0,0,0,0,0,0,0],"split_type":[0,0,0,0,0,0,0,0,0,0,0,0,0,0,0,0,0,0,0,0,0,0,0,0,0,0,0,0,0,0,0,0,0,0,0,0,0,0,0,0,0,0,0,0,0,0,0,0,0,0,0,0,0,0,0,0,0,0,0,0,0,0,0,0,0,0,0,0,0,0,0,0,0,0,0,0,0,0,0],"sum_hessian":[5.840969E2,2.3084407E2,3.5325284E2,1.4746616E2,8.337792E1,1.1328975E2,2.3996307E2,4.981734E0,1.4248442E2,3.7959454E1,4.541847E1,9.512574E1,1.8164005E1,2.0651817E2,3.34449E1,1.498118E0,3.4836159E0,3.1237043E1,6.7224092E0,7.195297E0,3.8223175E1,4.2473392E1,5.2652348E1,5.9668083E0,1.2197198E1,3.2459576E1,1.7405861E2,2.034432E1,1.3100581E1,1.490637E0,1.9929789E0,2.2037657E1,9.199388E0,2.4881806E0,4.2342286E0,4.7038507E0,2.491446E0,1.7469006E0,3.6476273E1,2.9201256E1,1.3272137E1,1.9799188E0,5.0672432E1,3.7274344E0,2.2393737E0,1.243049E0,1.0954149E1,3.050304E1,1.9565341E0,7.130715E0,1.3213604E1,2.6793523E0,1.0421228E1,1.9324018E1,2.7136369E0,7.7041726E0,1.4952145E0,1.9919428E0,2.711908E0,3.522989E1,1.2463826E0,4.9248815E0,2.4276375E1,1.2358447E0,1.2036292E1,4.7211796E1,3.4606342E0,1.7451655E0,1.982269E0,9.4604435E0,1.4937056E0,2.7316046E1,3.1869943E0,2.7118306E0,4.4188848E0,9.774389E0,3.4392152E0,1.459688E0,1.2196645E0],"tree_param":{"num_deleted":"0","num_feature":"10","num_nodes":"79","size_leaf_vector":"1"}},{"base_weights":[-1.0763592E-3,1.4831609E0,-9.906756E-1,6.576469E-1,1.7588161E0,-2.0765086E-1,-1.3717215E0,1.252937E0,1.4884533E-1,1.1941736E0,9.139871E-2,-7.3699075E-1,1.1301862E-1,-1.4631999E0,-6.0232013E-1,1.9680072E-1,1.4076645E0,-5.0032675E-1,5.919942E-1,4.021607E-1,1.3321446E0,-2.6788533E-1,-9.1767853E-1,-3.9281657E-1,2.6282325E-1,-1.0831232E0,-7.713583E-2,-7.3091334E-1,4.909262E-1,-3.5691757E-2,4.176208E-2,1.489958E0,1.6415423E-2,-9.474374E-1,4.376066E-2,9.6395105E-1,-5.687497E-2,-2.9065056E-2,6.619037E-2,1.4462379E0,7.6561086E-3,-6.5851647E-1,3.6008525E-1,-9.7865266E-1,1.6073408E-2,2.605799E-1,-7.3378015E-1,6.4774424E-2,7.3607373E-1,-6.20642E-2,-6.524642E-1,-8.824318E-1,-9.8709404E-2,6.3113E-2,-2.5255157E-2,2.0395325E-2,7.742645E-2,-5.9012573E-2,-3.7362294E-3,1.6652815E-2,-3.338421E-2,5.830596E-2,-2.7495785E-2,-2.9598052E-2,3.078569E-2,7.790528E-2,2.8845696E-2,-5.423937E-2,3.603608E-3,4.2955935E-2,-3.3964563E-2,-5.9164386E-2,-2.033736E-2,-2.9751534E-2,4.0862147E-2,-4.6992313E-2,1.4026943E-2,3.0238891E-2,-8.80319E-3,2.0198558E-2,7.823025E-2,8.141582E-3,-4.953617E-2,-5.397163E-2,-9.944896E-3,4.2834412E-2,-3.9707206E-2],"categories":[],"categories_nodes":[],"categories_segments":[],"categories_sizes":[],"default_left":[0,0,0,0,0,0,0,0,0,0,0,0,0,0,0,0,0,0,0,0,0,0,0,0,0,0,0,0,0,0,0,0,0,0,0,0,0,0,0,0,0,0,0,0,0,0,0,0,0,0,0,0,0,0,0,0,0,0,0,0,0,0,0,0,0,0,0,0,0,0,0,0,0,0,0,0,0,0,0,0,0,0,0,0,0,0,0],"id":3,"left_children":[1,3,5,7,9,11,13,15,17,19,-1,21,23,25,27,29,31,33,35,37,39,41,43,45,47,49,-1,51,53,-1,-1,55,-1,57,59,61,63,-1,-1,65,-1,67,69,71,-1,73,75,77,79,-1,81,83,85,-1,-1,-1,-1,-1,-1,-1,-1,-1,-1,-1,-1,-1,-1,-1,-1,-1,-1,-1,-1,-1,-1,-1,-1,-1,-1,-1,-1,-1,-1,-1,-1,-1,-1],"loss_changes":[8.7020685E2,5.2774475E1,1.05773346E2,1.8266861E1,4.7318115E0,2.003397E1,1.5935181E1,4.2889977E0,1.0072641E1,1.8908062E0,0E0,3.5238E0,5.715336E0,4.761505E0,4.1670074E0,3.3479218E0,1.6611443E0,3.5272384E0,5.039884E0,5.0539875E0,2.2643242E0,3.617165E0,2.709301E0,4.0504627E0,5.363948E0,1.92696E0,0E0,2.2730951E0,3.2874382E0,0E0,0E0,7.76001E-1,0E0,1.5188794E0,1.7494202E0,4.6764717E0,3.4128559E0,0E0,0E0,7.280998E-1,0E0,2.8337867E0,3.6597395E0,3.0829315E0,0E0,3.6668768E0,2.697648E0,5.542804E0,4.0284653E0,0E0,3.7191591E0,2.4447308E0,4.5934043E0,0E0,0E0,0E0,0E0,0E0,0E0,0E0,0E0,0E0,0E0,0E0,0E0,0E0,0E0,0E0,0E0,0E0,0E0,0E0,0E0,0E0,0E0,0E0,0E0,0E0,0E0,0E0,0E0,0E0,0E0,0E0,0E0,0E0,0E0],"parents":[2147483647,0,0,1,1,2,2,3,3,4,4,5,5,6,6,7,7,8,8,9,9,11,11,12,12,13,13,14,14,15,15,16,16,17,17,18,18,19,19,20,20,21,21,22,22,23,23,24,24,25,25,27,27,28,28,31,31,33,33,34,34,35,35,36,36,39,39,41,41,42,42,43,43,45,45,46,46,47,47,48,48,50,50,51,51,52,52],"right_children":[2,4,6,8,10,12,14,16,18,20,-1,22,24,26,28,30,32,34,36,38,40,42,44,46,48,50,-1,52,54,-1,-1,56,-1,58,60,62,64,-1,-1,66,-1,68,70,72,-1,74,76,78,80,-1,82,84,86,-1,-1,-1,-1,-1,-1,-1,-1,-1,-1,-1,-1,-1,-1,-1,-1,-1,-1,-1,-1,-1,-1,-1,-1,-1,-1,-1,-1,-1,-1,-1,-1,-1,-1],"split_conditions":[5.394522E1,3.7888604E-1,6.126191E1,4.9710724E1,7.9325933E0,2.616497E-1,3.132741E-1,4.535526E0,2.76434E-1,4.1392457E-1,9.139871E-2,5.269654E-1,5.357161E-1,6.452058E1,4.549659E-1,3.1931707E-1,1.0556134E1,5.1933506E1,3.304901E-1,8.426371E0,7.800735E0,5.016581E-1,9.363837E0,3.2891622E-1,9.684166E0,2.401671E-1,-7.713583E-2,8.2791513E-1,4.466165E-1,-3.5691757E-2,4.176208E-2,1.197253E0,1.6415423E-2,5.949299E0,2.4381284E-1,6.2803006E-1,5.2136395E1,-2.9065056E-2,6.619037E-2,8.9642984E-1,7.6561086E-3,4.8456545E0,3.5293064E-1,6.8101627E-1,1.6073408E-2,2.8886378E-1,5.956175E1,4.5791698E0,4.48227E-1,-6.20642E-2,2.5251108E-1,1.0946461E1,5.4914536E0,6.3113E-2,-2.5255157E-2,2.0395325E-2,7.742645E-2,-5.9012573E-2,-3.7362294E-3,1.6652815E-2,-3.338421E-2,5.830596E-2,-2.7495785E-2,-2.9598052E-2,3.078569E-2,7.790528E-2,2.8845696E-2,-5.423937E-2,3.603608E-3,4.2955935E-2,-3.3964563E-2,-5.9164386E-2,-2.033736E-2,-2.9751534E-2,4.0862147E-2,-4.6992313E-2,1.4026943E-2,3.0238891E-2,-8.80319E-3,2.0198558E-2,7.823025E-2,8.141582E-3,-4.953617E-2,-5.397163E-2,-9.944896E-3,4.2834412E-2,-3.9707206E-2],"split_indices":[1,3,1,1,4,3,3,4,3,5,0,6,9,1,3,8,2,1,3,2,4,6,4,3,4,3,0,9,5,0,0,2,0,2,3,6,1,0,0,9,0,2,5,8,0,3,1,2,3,0,3,4,2,0,0,0,0,0,0,0,0,0,0,0,0,0,0,0,0,0,0,0,0,0,0,0,0,0,0,0,0,0,0,0,0,0,0],"split_type":[0,0,0,0,0,0,0,0,0,0,0,0,0,0,0,0,0,0,0,0,0,0,0,0,0,0,0,0,0,0,0,0,0,0,0,0,0,0,0,0,0,0,0,0,0,0,0,0,0,0,0,0,0,0,0,0,0,0,0,0,0,0,0,0,0,0,0,0,0,0,0,0,0,0,0,0,0,0,0,0,0,0,0,0,0,0,0],"sum_hessian":[5.904607E2,2.3600021E2,3.544605E2,5.992538E1,1.7607483E2,1.1653451E2,2.37926E2,2.6941597E1,3.2983784E1,2.1205898E1,1.5486893E2,4.347333E1,7.306117E1,2.118377E2,2.6088291E1,3.732985E0,2.3208612E1,1.3329003E1,1.9654781E1,3.726872E0,1.7479027E1,1.2778949E1,3.0694382E1,1.632282E1,5.6738354E1,3.9180904E1,1.726568E2,2.363916E1,2.4491303E0,1.4898527E0,2.2431324E0,2.1211002E1,1.99761E0,6.909611E0,6.4193926E0,1.2184545E1,7.470236E0,1.9816217E0,1.7452501E0,1.57301855E1,1.7488418E0,7.848267E0,4.9306817E0,2.9455214E1,1.2391684E0,5.677894E0,1.0644927E1,4.0800694E1,1.5937661E1,2.7279968E1,1.1900938E1,1.8749678E1,4.889483E0,1.2296145E0,1.2195158E0,1.4981487E0,1.9712854E1,5.176326E0,1.7332855E0,4.941773E0,1.4776195E0,1.09517145E1,1.2328304E0,4.2271514E0,3.2430847E0,1.3234771E1,2.4954147E0,4.650224E0,3.1980429E0,3.4484258E0,1.4822559E0,2.0905819E1,8.549396E0,2.2108364E0,3.4670575E0,8.90852E0,1.736407E0,1.2118241E1,2.8682451E1,1.2439197E1,3.4984643E0,3.6418107E0,8.259128E0,1.4105226E1,4.644452E0,1.9620786E0,2.9274044E0],"tree_param":{"num_deleted":"0","num_feature":"10","num_nodes":"87","size_leaf_vector":"1"}},{"base_weights":[-1.47920605E-2,-1.0063881E0,1.2631333E0,-4.555329E-1,-1.3378096E0,5.7249624E-1,1.6400874E0,-8.6909E-1,-9.549549E-2,-1.4855285E0,-9.2305994E-1,1.1526308E0,1.426232E-1,8.6490375E-1,1.7154096E0,-4.4217086E-1,-1.18449E0,-6.287048E-2,4.270084E-3,-9.354258E-1,-7.5315304E-2,-6.428561E-1,-1.1459908E0,1.229796E0,1.30996E-2,3.1688496E-1,-4.7970572E-1,1.123775E0,-5.3526413E-2,1.3488992E0,1.7698911E0,-1.1859051E0,-1.2958956E-1,-6.3364856E-2,-1.0803951E-1,9.657477E-1,-8.4318005E-2,-1.0903898E0,-5.9214877E-3,-4.7802832E-2,-7.847205E-1,-1.3409649E0,-7.2948325E-1,1.2816585E0,6.0379873E-3,3.3334516E-2,-3.2258667E-2,1.019103E0,9.475642E-2,-8.8266486E-1,4.5998044E-2,-1.4375764E-3,1.399647E0,1.437896E0,7.3703416E-3,8.9337535E-2,9.07011E-1,-6.817302E-2,-2.1486824E-2,2.2038436E-2,-2.7985102E-2,1.6877443E-2,-2.5434962E-2,5.5696886E-2,1.2700011E-2,-2.3508511E-2,9.704911E-3,-6.5975815E-2,-7.2872774E-3,-4.8971765E-2,2.1218233E-2,-1.1306324E-2,-4.95795E-2,-3.655372E-2,-7.312882E-2,-5.6456562E-2,-1.0099775E-2,3.279949E-2,7.038506E-2,6.880354E-2,-2.29775E-2,5.1110514E-2,-1.1493469E-2,-5.7125922E-2,5.9380177E-3,-2.6494367E-2,3.2281164E-2,-7.1899677E-3,7.930183E-2,2.5302118E-2,7.657476E-2,2.1016519E-3,6.59763E-2],"categories":[],"categories_nodes":[],"categories_segments":[],"categories_sizes":[],"default_left":[0,0,0,0,0,0,0,0,0,0,0,0,0,0,0,0,0,0,0,0,0,0,0,0,0,0,0,0,0,0,0,0,0,0,0,0,0,0,0,0,0,0,0,0,0,0,0,0,0,0,0,0,0,0,0,0,0,0,0,0,0,0,0,0,0,0,0,0,0,0,0,0,0,0,0,0,0,0,0,0,0,0,0,0,0,0,0,0,0,0,0,0,0],"id":4,"left_children":[1,3,5,7,9,11,13,15,17,19,21,23,25,27,29,31,33,-1,35,37,-1,39,41,43,45,47,49,51,-1,53,55,57,59,-1,61,63,65,67,-1,69,71,73,75,77,-1,-1,-1,79,81,83,-1,85,87,89,-1,-1,91,-1,-1,-1,-1,-1,-1,-1,-1,-1,-1,-1,-1,-1,-1,-1,-1,-1,-1,-1,-1,-1,-1,-1,-1,-1,-1,-1,-1,-1,-1,-1,-1,-1,-1,-1,-1],"loss_changes":[7.4356165E2,5.9709717E1,6.5806915E1,1.8622526E1,1.1235565E1,2.2794277E1,8.169067E0,7.3324165E0,7.920686E0,3.06427E-1,2.8039665E0,3.416893E0,6.010385E0,9.5491085E0,6.010437E-1,5.9803557E0,2.801014E0,0E0,5.5224705E0,8.965101E-1,0E0,2.274867E0,1.4815178E0,1.9477463E0,1.9303163E0,6.580248E0,7.7014914E0,4.714287E0,0E0,2.3085861E0,2.2827148E-1,4.4590378E-1,5.0795383E0,0E0,7.871959E-1,2.9395056E-1,6.4736195E0,1.2551894E0,0E0,3.2037222E0,2.324273E0,3.724823E-1,2.270187E0,1.8223E0,0E0,0E0,0E0,6.007736E0,1.0357426E1,2.7366114E0,0E0,1.7057651E0,3.7356548E0,1.1292267E0,0E0,0E0,1.538281E0,0E0,0E0,0E0,0E0,0E0,0E0,0E0,0E0,0E0,0E0,0E0,0E0,0E0,0E0,0E0,0E0,0E0,0E0,0E0,0E0,0E0,0E0,0E0,0E0,0E0,0E0,0E0,0E0,0E0,0E0,0E0,0E0,0E0,0E0,0E0,0E0],"parents":[2147483647,0,0,1,1,2,2,3,3,4,4,5,5,6,6,7,7,8,8,9,9,10,10,11,11,12,12,13,13,14,14,15,15,16,16,18,18,19,19,21,21,22,22,23,23,24,24,25,25,26,26,27,27,29,29,30,30,31,31,32,32,34,34,35,35,36,36,37,37,39,39,40,40,41,41,42,42,43,43,47,47,48,48,49,49,51,51,52,52,53,53,56,56],"right_children":[2,4,6,8,10,12,14,16,18,20,22,24,26,28,30,32,34,-1,36,38,-1,40,42,44,46,48,50,52,-1,54,56,58,60,-1,62,64,66,68,-1,70,72,74,76,78,-1,-1,-1,80,82,84,-1,86,88,90,-1,-1,92,-1,-1,-1,-1,-1,-1,-1,-1,-1,-1,-1,-1,-1,-1,-1,-1,-1,-1,-1,-1,-1,-1,-1,-1,-1,-1,-1,-1,-1,-1,-1,-1,-1,-1,-1,-1],"split_conditions":[1.9673792E1,6.1600196E-1,2.5304455E1,1.393776E1,2.3143059E-1,5.1438963E-1,7.6035604E0,5.49078E-1,9.0622984E-2,6.2649006E-1,5.5167556E-1,9.302961E-1,6.5905166E-1,5.74174E-1,4.549659E-1,8.840094E0,2.6552895E-1,-6.287048E-2,4.243371E-1,8.072475E-1,-7.5315304E-2,6.389171E-1,2.9791933E-1,4.807033E-1,1.0969366E-1,4.3908987E0,8.426371E0,6.85679E-2,-5.3526413E-2,8.286518E-1,6.017403E-1,6.957129E-1,1.8473941E-1,-6.3364856E-2,5.8759844E-1,8.0478115E0,6.178118E0,6.2357384E-1,-5.9214877E-3,2.4747472E-1,5.6572753E-1,2.4621776E-1,7.8715986E-1,6.069546E0,6.0379873E-3,3.3334516E-2,-3.2258667E-2,4.2748335E-1,3.2514498E-1,7.798551E-1,4.5998044E-2,2.9434305E1,3.9393717E-1,5.447787E-2,7.3703416E-3,8.9337535E-2,6.3465536E-1,-6.817302E-2,-2.1486824E-2,2.2038436E-2,-2.7985102E-2,1.6877443E-2,-2.5434962E-2,5.5696886E-2,1.2700011E-2,-2.3508511E-2,9.704911E-3,-6.5975815E-2,-7.2872774E-3,-4.8971765E-2,2.1218233E-2,-1.1306324E-2,-4.95795E-2,-3.655372E-2,-7.312882E-2,-5.6456562E-2,-1.0099775E-2,3.279949E-2,7.038506E-2,6.880354E-2,-2.29775E-2,5.1110514E-2,-1.1493469E-2,-5.7125922E-2,5.9380177E-3,-2.6494367E-2,3.2281164E-2,-7.1899677E-3,7.930183E-2,2.5302118E-2,7.657476E-2,2.1016519E-3,6.59763E-2],"split_indices":[0,6,0,0,3,6,4,6,8,6,8,8,6,6,3,0,3,0,6,9,0,6,3,3,7,2,2,7,0,8,6,8,3,0,6,4,4,6,0,3,9,3,8,4,0,0,0,3,3,9,0,0,3,7,0,0,6,0,0,0,0,0,0,0,0,0,0,0,0,0,0,0,0,0,0,0,0,0,0,0,0,0,0,0,0,0,0,0,0,0,0,0,0],"split_type":[0,0,0,0,0,0,0,0,0,0,0,0,0,0,0,0,0,0,0,0,0,0,0,0,0,0,0,0,0,0,0,0,0,0,0,0,0,0,0,0,0,0,0,0,0,0,0,0,0,0,0,0,0,0,0,0,0,0,0,0,0,0,0,0,0,0,0,0,0,0,0,0,0,0,0,0,0,0,0,0,0,0,0,0,0,0,0,0,0,0,0,0,0],"sum_hessian":[5.8477875E2,3.293977E2,2.5538104E2,1.24628075E2,2.0476964E2,9.106145E1,1.643196E2,5.7344917E1,6.728315E1,1.4908807E2,5.568156E1,3.8041405E1,5.3020046E1,1.5657912E1,1.4866168E2,2.5385517E1,3.1959402E1,4.4027805E0,6.288037E1,7.1011353E0,1.4198694E2,2.6392393E1,2.9289167E1,3.5554554E1,2.4868486E0,4.1804848E1,1.12151985E1,1.4180575E1,1.4773375E0,2.2572138E1,1.26089554E2,6.6852317E0,1.8700285E1,2.9511871E1,2.4475298E0,4.4695225E0,5.841085E1,5.6876884E0,1.4134471E0,5.33819E0,2.1054203E1,1.8438335E1,1.0850832E1,3.381748E1,1.7370768E0,1.2414459E0,1.2454028E0,9.183866E0,3.262098E1,8.994957E0,2.2202415E0,2.9880126E0,1.1192562E1,2.0832293E1,1.7398459E0,1.2262298E2,3.466569E0,4.7635818E0,1.9216499E0,8.02879E0,1.06714945E1,1.2333705E0,1.2141591E0,3.2316084E0,1.2379144E0,2.4193193E1,3.421766E1,4.258046E0,1.4296422E0,1.4341445E0,3.9040453E0,6.2556477E0,1.4798554E1,4.2310195E0,1.4207316E1,5.5245824E0,5.326249E0,6.7106605E0,2.7106817E1,7.45379E0,1.7300756E0,7.9004784E0,2.4720503E1,7.0299153E0,1.9650412E0,1.7444332E0,1.2435795E0,1.2306176E0,9.961945E0,2.4862423E0,1.834605E1,1.4752016E0,1.9913673E0],"tree_param":{"num_deleted":"0","num_feature":"10","num_nodes":"93","size_leaf_vector":"1"}},{"base_weights":[1.9195053E-3,1.3841897E0,-9.148233E-1,1.6268226E0,6.6555136E-1,-3.7244874E-1,-1.4049014E0,2.2355027E-2,1.6396307E0,-1.9477704E-1,9.5379597E-1,-8.0588275E-1,4.869006E-2,-1.4504256E0,9.147738E-2,8.243859E-2,2.8432691E-2,1.4164764E-1,-7.9465735E-1,5.206991E-1,1.255269E0,-3.114121E-1,-9.360475E-1,-5.9220836E-2,5.382721E-1,-1.4749192E0,-8.934262E-1,6.322899E-1,-5.1248427E-2,-4.8478946E-2,5.690332E-1,-5.826345E-2,1.6833233E-2,-1.0472376E-1,1.0701727E0,4.729522E-1,7.71046E-2,-6.727913E-1,5.976579E-1,-1.0958134E0,-6.006499E-1,6.195377E-1,-1.4756386E-1,-3.053826E-1,9.03334E-1,-7.399929E-2,-2.5087267E-2,3.773272E-3,-5.8600694E-2,1.1200181E0,-2.3651112E-2,-1.138332E-2,4.1948E-2,-3.3269353E-2,3.2173812E-2,9.069511E-3,6.548999E-2,-1.3408187E-2,4.9049303E-2,-4.447109E-2,1.6157331E-2,5.877728E-2,-1.9811327E-2,-4.284095E-2,-6.912302E-2,-7.4666715E-3,-5.2036107E-2,6.999184E-2,1.0439544E-2,-2.1299606E-3,-4.661201E-2,2.1313852E-2,-3.4329355E-2,-1.1579274E-2,7.492435E-2,1.844362E-2,6.7127526E-2],"categories":[],"categories_nodes":[],"categories_segments":[],"categories_sizes":[],"default_left":[0,0,0,0,0,0,0,0,0,0,0,0,0,0,0,0,0,0,0,0,0,0,0,0,0,0,0,0,0,0,0,0,0,0,0,0,0,0,0,0,0,0,0,0,0,0,0,0,0,0,0,0,0,0,0,0,0,0,0,0,0,0,0,0,0,0,0,0,0,0,0,0,0,0,0,0,0],"id":5,"left_children":[1,3,5,7,9,11,13,-1,15,17,19,21,23,25,27,-1,-1,29,31,33,35,37,39,41,43,45,47,49,-1,-1,51,-1,-1,53,55,57,-1,59,61,63,65,67,69,71,73,-1,-1,-1,-1,75,-1,-1,-1,-1,-1,-1,-1,-1,-1,-1,-1,-1,-1,-1,-1,-1,-1,-1,-1,-1,-1,-1,-1,-1,-1,-1,-1],"loss_changes":[7.397686E2,3.9507416E1,9.277487E1,1.8860168E0,1.517647E1,3.070011E1,1.2669098E1,0E0,7.374878E-1,3.3417706E0,5.2805367E0,5.0399475E0,4.5826144E0,1.1196594E0,4.496677E0,0E0,0E0,5.823503E0,2.866305E0,7.1093707E0,5.1243668E0,6.565127E0,2.8288307E0,4.3776913E0,5.0977054E0,9.362793E-2,2.8043165E0,3.1780872E0,0E0,0E0,2.050567E0,0E0,0E0,4.804892E0,2.0898237E0,3.4412038E0,0E0,3.285088E0,3.8348594E0,1.752037E0,4.4542637E0,2.4078174E0,5.23621E0,1.8199575E0,7.8986874E0,0E0,0E0,0E0,0E0,1.2414646E-1,0E0,0E0,0E0,0E0,0E0,0E0,0E0,0E0,0E0,0E0,0E0,0E0,0E0,0E0,0E0,0E0,0E0,0E0,0E0,0E0,0E0,0E0,0E0,0E0,0E0,0E0,0E0],"parents":[2147483647,0,0,1,1,2,2,3,3,4,4,5,5,6,6,8,8,9,9,10,10,11,11,12,12,13,13,14,14,17,17,18,18,19,19,20,20,21,21,22,22,23,23,24,24,25,25,26,26,27,27,30,30,33,33,34,34,35,35,37,37,38,38,39,39,40,40,41,41,42,42,43,43,44,44,49,49],"right_children":[2,4,6,8,10,12,14,-1,16,18,20,22,24,26,28,-1,-1,30,32,34,36,38,40,42,44,46,48,50,-1,-1,52,-1,-1,54,56,58,-1,60,62,64,66,68,70,72,74,-1,-1,-1,-1,76,-1,-1,-1,-1,-1,-1,-1,-1,-1,-1,-1,-1,-1,-1,-1,-1,-1,-1,-1,-1,-1,-1,-1,-1,-1,-1,-1],"split_conditions":[5.394522E1,4.8757305E1,6.441011E1,3.2735407E-1,2.8230765E-1,2.742616E-1,3.669251E-1,2.2355027E-2,3.435014E-1,5.8310026E-1,1.3121362E-1,5.2445185E-1,4.3903247E-1,3.161682E-1,8.825964E0,8.243859E-2,2.8432691E-2,1.7278636E-1,8.4886116E-1,3.9651212E-1,5.943127E-1,5.083683E-1,6.7717916E-1,2.337677E0,5.3456223E-1,3.435014E-1,2.3221166E-1,4.637349E-1,-5.1248427E-2,-4.8478946E-2,4.693466E-1,-5.826345E-2,1.6833233E-2,5.081653E-1,4.997879E1,4.1392457E-1,7.71046E-2,2.2038312E-1,6.063926E1,3.8443056E-1,6.1458378E1,3.322353E-1,6.3210197E1,6.651666E0,1.2836492E-1,-7.399929E-2,-2.5087267E-2,3.773272E-3,-5.8600694E-2,4.15315E-1,-2.3651112E-2,-1.138332E-2,4.1948E-2,-3.3269353E-2,3.2173812E-2,9.069511E-3,6.548999E-2,-1.3408187E-2,4.9049303E-2,-4.447109E-2,1.6157331E-2,5.877728E-2,-1.9811327E-2,-4.284095E-2,-6.912302E-2,-7.4666715E-3,-5.2036107E-2,6.999184E-2,1.0439544E-2,-2.1299606E-3,-4.661201E-2,2.1313852E-2,-3.4329355E-2,-1.1579274E-2,7.492435E-2,1.844362E-2,6.7127526E-2],"split_indices":[1,1,1,5,3,3,3,0,7,8,7,6,3,3,2,0,0,3,9,3,9,6,8,2,6,7,8,5,0,0,6,0,0,8,1,5,0,7,1,8,1,5,1,2,7,0,0,0,0,8,0,0,0,0,0,0,0,0,0,0,0,0,0,0,0,0,0,0,0,0,0,0,0,0,0,0,0],"split_type":[0,0,0,0,0,0,0,0,0,0,0,0,0,0,0,0,0,0,0,0,0,0,0,0,0,0,0,0,0,0,0,0,0,0,0,0,0,0,0,0,0,0,0,0,0,0,0,0,0,0,0,0,0,0,0,0,0,0,0,0,0,0,0,0,0,0,0,0,0,0,0,0,0,0,0,0,0],"sum_hessian":[5.8178906E2,2.3178793E2,3.5000113E2,1.7233795E2,5.944998E1,1.6697176E2,1.8302939E2,2.236614E0,1.7010135E2,1.5000876E1,4.4449104E1,8.18345E1,8.513725E1,1.776553E2,5.3740916E0,1.6812685E2,1.9745001E0,1.0100303E1,4.9005747E0,1.9361506E1,2.50876E1,1.7760033E1,6.407447E1,7.048122E1,1.46560335E1,1.6859358E2,9.061712E0,3.912509E0,1.4615827E0,2.4532044E0,7.647098E0,3.6687243E0,1.2318501E0,9.4335E0,9.928006E0,7.4410043E0,1.7646595E1,1.2894173E1,4.86586E0,4.186498E1,2.2209488E1,7.4244785E0,6.305674E1,4.4758544E0,1.0180179E1,1.6720229E2,1.3912947E0,2.1864917E0,6.8752203E0,2.7054164E0,1.2070924E0,1.974841E0,5.672257E0,5.455847E0,3.977653E0,2.481402E0,7.446604E0,3.2183108E0,4.2226934E0,1.0678418E1,2.215755E0,2.96127E0,1.9045901E0,2.5005526E1,1.6859453E1,1.1625889E1,1.05836E1,1.7299848E0,5.694494E0,5.6546864E1,6.5098767E0,1.4926741E0,2.9831805E0,3.7121747E0,6.468004E0,1.2257107E0,1.4797058E0],"tree_param":{"num_deleted":"0","num_feature":"10","num_nodes":"77","size_leaf_vector":"1"}},{"base_weights":[-9.592565E-3,1.2948432E0,-8.390158E-1,1.9512507E-1,1.4741063E0,-1.5717202E-1,-1.2043085E0,8.4742033E-1,-1.8943283E-1,1.1070678E0,1.611321E0,-3.9586452E-1,5.4262817E-1,-1.3385139E0,-5.375562E-1,1.4331473E-1,1.273986E0,6.6584057E-1,-4.0854457E-1,1.3248839E0,6.9065595E-1,2.7055165E-2,8.1149474E-2,-8.591785E-1,-2.3763822E-1,-1.1435626E-1,8.573385E-1,-9.021012E-1,-1.4282368E0,-7.2697884E-1,2.697828E-1,-3.6229473E-2,6.198386E-1,1.1970966E-2,7.213752E-2,-4.5251814E-3,4.7957953E-2,-5.7383347E-1,4.2743415E-1,1.4318092E0,3.6739502E-2,1.751099E-1,9.6015155E-1,-1.0762045E0,5.9792876E-2,-5.311965E-1,1.6161924E-2,2.5447506E-1,-6.0755115E-2,3.434474E-1,1.2629625E0,-1.0191412E0,-1.5544033E-1,-7.168929E-2,-1.8166449E-2,-2.4418136E-1,-8.9376783E-1,1.1266258E0,-3.4447673E-1,-1.19657E-2,5.2857723E-2,-4.0576052E-2,8.855737E-3,3.9101556E-2,-6.046393E-3,2.6349917E-2,7.364334E-2,-3.681961E-2,3.5818003E-2,3.7351288E-2,-1.8667115E-2,-3.67009E-2,5.9503466E-2,-3.397554E-2,-6.292158E-2,-3.782886E-2,3.6472823E-2,8.615982E-3,-3.8164154E-2,6.7699114E-3,-6.2205803E-2,3.0611778E-2,-4.0726926E-2,3.5062414E-2,-4.247148E-2,3.1978887E-2,7.653845E-2,-2.4570426E-2,-6.1449077E-2,-4.4474278E-2,3.8735118E-2,-3.2151505E-2,2.3296643E-2,-5.3442944E-2,-7.7458993E-3,1.8641291E-2,6.745594E-2,-4.2771418E-2,4.0696554E-2],"categories":[],"categories_nodes":[],"categories_segments":[],"categories_sizes":[],"default_left":[0,0,0,0,0,0,0,0,0,0,0,0,0,0,0,0,0,0,0,0,0,0,0,0,0,0,0,0,0,0,0,0,0,0,0,0,0,0,0,0,0,0,0,0,0,0,0,0,0,0,0,0,0,0,0,0,0,0,0,0,0,0,0,0,0,0,0,0,0,0,0,0,0,0,0,0,0,0,0,0,0,0,0,0,0,0,0,0,0,0,0,0,0,0,0,0,0,0,0],"id":6,"left_children":[1,3,5,7,9,11,13,15,17,19,21,23,25,27,29,31,33,35,37,39,41,-1,-1,43,45,47,49,51,53,55,57,-1,59,-1,-1,-1,-1,61,63,65,67,69,71,73,75,77,79,81,-1,83,85,87,89,-1,-1,91,93,95,97,-1,-1,-1,-1,-1,-1,-1,-1,-1,-1,-1,-1,-1,-1,-1,-1,-1,-1,-1,-1,-1,-1,-1,-1,-1,-1,-1,-1,-1,-1,-1,-1,-1,-1,-1,-1,-1,-1,-1,-1],"loss_changes":[6.1985895E2,4.3614166E1,8.704114E1,8.279301E0,7.8520813E0,2.0814554E1,1.9673096E1,3.477685E0,4.240956E0,4.0970154E0,8.334656E-1,6.5795546E0,6.6704493E0,6.113678E0,6.2913313E0,2.816621E0,9.5748806E-1,1.1293924E0,2.66054E0,4.7945824E0,2.7588358E0,0E0,0E0,4.6863613E0,5.250909E0,4.8472133E0,4.070774E0,2.8960056E0,3.954773E-1,2.403101E0,4.7584887E0,0E0,1.8439451E0,0E0,0E0,0E0,0E0,2.8248048E0,7.6708454E-1,4.2998505E-1,2.4840562E0,2.9309793E0,6.175583E0,5.0391006E-1,3.4902546E0,5.463337E0,5.9849625E0,4.0169034E0,0E0,5.2506037E0,9.748516E-1,2.7222042E0,4.7285423E0,0E0,0E0,3.0566294E0,2.9157486E0,1.177845E-1,4.012192E0,0E0,0E0,0E0,0E0,0E0,0E0,0E0,0E0,0E0,0E0,0E0,0E0,0E0,0E0,0E0,0E0,0E0,0E0,0E0,0E0,0E0,0E0,0E0,0E0,0E0,0E0,0E0,0E0,0E0,0E0,0E0,0E0,0E0,0E0,0E0,0E0,0E0,0E0,0E0,0E0],"parents":[2147483647,0,0,1,1,2,2,3,3,4,4,5,5,6,6,7,7,8,8,9,9,10,10,11,11,12,12,13,13,14,14,15,15,16,16,17,17,18,18,19,19,20,20,23,23,24,24,25,25,26,26,27,27,28,28,29,29,30,30,32,32,37,37,38,38,39,39,40,40,41,41,42,42,43,43,44,44,45,45,46,46,47,47,49,49,50,50,51,51,52,52,55,55,56,56,57,57,58,58],"right_children":[2,4,6,8,10,12,14,16,18,20,22,24,26,28,30,32,34,36,38,40,42,-1,-1,44,46,48,50,52,54,56,58,-1,60,-1,-1,-1,-1,62,64,66,68,70,72,74,76,78,80,82,-1,84,86,88,90,-1,-1,92,94,96,98,-1,-1,-1,-1,-1,-1,-1,-1,-1,-1,-1,-1,-1,-1,-1,-1,-1,-1,-1,-1,-1,-1,-1,-1,-1,-1,-1,-1,-1,-1,-1,-1,-1,-1,-1,-1,-1,-1,-1,-1],"split_conditions":[5.394522E1,1.9119022E1,6.126191E1,5.0326633E1,2.5940346E1,2.1745024E1,1.6660334E1,5.236508E0,1.4370903E0,5.016581E-1,6.019797E0,2.4936844E-1,5.3456223E-1,6.452058E1,2.3007158E1,2.8833345E-1,3.2615846E-1,5.791347E-1,8.730483E-1,9.3606305E-1,7.4289045E0,2.7055165E-2,8.1149474E-2,7.1479564E0,1.4856283E1,5.189643E-1,1.0184135E1,6.4145065E1,4.356562E-1,3.9696205E-1,4.466165E-1,-3.6229473E-2,4.6552256E-1,1.1970966E-2,7.213752E-2,-4.5251814E-3,4.7957953E-2,5.8618534E-1,4.4819317E0,4.51811E-1,9.634662E-1,4.275005E-1,4.8003086E-1,5.49078E-1,1.8027855E1,1.7098557E0,9.886779E0,5.328508E-1,-6.0755115E-2,6.326185E-1,6.994805E0,3.703419E-1,1.1479772E1,-7.168929E-2,-1.8166449E-2,6.618427E0,8.852255E-1,5.918555E-1,4.944771E-1,-1.19657E-2,5.2857723E-2,-4.0576052E-2,8.855737E-3,3.9101556E-2,-6.046393E-3,2.6349917E-2,7.364334E-2,-3.681961E-2,3.5818003E-2,3.7351288E-2,-1.8667115E-2,-3.67009E-2,5.9503466E-2,-3.397554E-2,-6.292158E-2,-3.782886E-2,3.6472823E-2,8.615982E-3,-3.8164154E-2,6.7699114E-3,-6.2205803E-2,3.0611778E-2,-4.0726926E-2,3.5062414E-2,-4.247148E-2,3.1978887E-2,7.653845E-2,-2.4570426E-2,-6.1449077E-2,-4.4474278E-2,3.8735118E-2,-3.2151505E-2,2.3296643E-2,-5.3442944E-2,-7.7458993E-3,1.8641291E-2,6.745594E-2,-4.2771418E-2,4.0696554E-2],"split_indices":[1,0,1,1,0,0,0,4,2,6,4,8,6,1,0,8,5,2,8,8,4,0,0,2,0,6,4,1,5,8,5,0,6,0,0,0,0,6,4,9,8,5,9,6,0,2,2,8,0,6,2,8,0,0,0,2,9,6,5,0,0,0,0,0,0,0,0,0,0,0,0,0,0,0,0,0,0,0,0,0,0,0,0,0,0,0,0,0,0,0,0,0,0,0,0,0,0,0,0],"split_type":[0,0,0,0,0,0,0,0,0,0,0,0,0,0,0,0,0,0,0,0,0,0,0,0,0,0,0,0,0,0,0,0,0,0,0,0,0,0,0,0,0,0,0,0,0,0,0,0,0,0,0,0,0,0,0,0,0,0,0,0,0,0,0,0,0,0,0,0,0,0,0,0,0,0,0,0,0,0,0,0,0,0,0,0,0,0,0,0,0,0,0,0,0,0,0,0,0,0,0],"sum_hessian":[5.709159E2,2.2169481E2,3.4922107E2,3.1365654E1,1.9032915E2,1.22324425E2,2.2689664E2,1.118678E1,2.0178875E1,5.4258926E1,1.3607022E2,9.153677E1,3.0787651E1,1.8804001E2,3.885663E1,4.7244296E0,6.4623504E0,3.6995108E0,1.6479364E1,3.419211E1,2.0066818E1,1.9784846E0,1.3409174E2,2.2174868E1,6.936191E1,1.0177627E1,2.0610025E1,3.3951965E1,1.5408804E2,3.1553013E1,7.303616E0,1.4900296E0,3.2343998E0,1.2455409E0,5.2168097E0,1.227013E0,2.472498E0,1.402077E1,2.4585946E0,3.1468472E1,2.723638E0,7.455051E0,1.2611768E1,1.7800072E1,4.374795E0,3.1655064E1,3.770684E1,8.199128E0,1.9784986E0,9.906299E0,1.0703727E1,2.9035662E1,4.916304E0,1.5294469E2,1.1433544E0,8.734275E0,2.2818739E1,2.7013412E0,4.602275E0,1.2437295E0,1.9906703E0,1.0588632E1,3.4321384E0,1.2343093E0,1.2242851E0,1.966527E0,2.9501944E1,1.2350824E0,1.4885557E0,3.472221E0,3.9828298E0,1.2450415E0,1.1366727E1,7.091461E0,1.0708611E1,1.9129629E0,2.461832E0,7.9162693E0,2.3738794E1,3.5263123E1,2.4437187E0,6.463362E0,1.7357663E0,7.937577E0,1.9687216E0,4.234683E0,6.4690437E0,9.211429E0,1.9824234E1,2.772236E0,2.1440682E0,5.653405E0,3.0808694E0,1.8086086E1,4.7326527E0,1.2253987E0,1.4759426E0,3.3751214E0,1.2271535E0],"tree_param":{"num_deleted":"0","num_feature":"10","num_nodes":"99","size_leaf_vector":"1"}},{"base_weights":[3.5337151E-3,-8.81294E-1,1.1033098E0,-1.1750085E0,-3.5635573E-1,4.3897897E-1,1.4702668E0,-4.3593198E-1,-1.2782631E0,-5.0136592E-2,-8.147923E-1,7.430594E-1,-2.3187415E-1,8.76189E-1,1.5478728E0,-5.588129E-1,4.8405677E-2,-7.0919015E-2,-1.0422283E0,-4.7447187E-1,1.7193802E-1,-9.062805E-1,2.4839815E-1,9.8386186E-1,4.232578E-1,-5.31728E-1,3.6192974E-1,1.1893877E0,3.1183386E-1,7.850778E-2,9.1508484E-1,-2.4041656E-1,-1.0610204E0,5.9943288E-3,-1.0632285E0,2.5745845E-1,-7.7540976E-1,-4.6106894E-3,8.0843616E-1,-4.970776E-1,-1.1131701E0,-1.2201608E-2,4.2143416E-2,1.0787315E0,-3.648608E-2,5.2772516E-1,-3.3243775E-2,2.7904946E-1,-7.9670024E-1,7.118515E-1,-5.410246E-1,1.2991679E0,3.149245E-3,-3.5239737E-2,7.5788236E-1,-7.7039287E-3,6.687061E-2,3.4677628E-3,-4.3022167E-2,-6.4164095E-2,-1.1135045E-2,-1.9284779E-3,-5.4174025E-2,5.204307E-2,-1.8404417E-2,-4.664966E-2,2.2583304E-2,-5.0784387E-2,7.206633E-3,8.92692E-3,5.2061416E-2,-4.115679E-2,1.2135952E-2,-6.224186E-2,-2.6098743E-2,-1.3169895E-2,5.7011437E-2,-5.193892E-2,3.996569E-2,5.3131577E-2,1.3919133E-2,4.5766782E-2,-2.5744269E-2,-1.3942464E-2,-5.7050474E-2,6.3120924E-2,6.328811E-3,-5.090618E-2,8.700282E-3,6.3684518E-3,7.104318E-2,-2.2572448E-2,5.94471E-2],"categories":[],"categories_nodes":[],"categories_segments":[],"categories_sizes":[],"default_left":[0,0,0,0,0,0,0,0,0,0,0,0,0,0,0,0,0,0,0,0,0,0,0,0,0,0,0,0,0,0,0,0,0,0,0,0,0,0,0,0,0,0,0,0,0,0,0,0,0,0,0,0,0,0,0,0,0,0,0,0,0,0,0,0,0,0,0,0,0,0,0,0,0,0,0,0,0,0,0,0,0,0,0,0,0,0,0,0,0,0,0,0,0],"id":7,"left_children":[1,3,5,7,9,11,13,15,17,19,21,23,25,27,29,31,-1,-1,33,35,37,39,41,43,45,47,49,51,53,-1,55,57,59,-1,61,63,65,67,69,71,73,-1,-1,75,77,79,-1,81,83,85,87,89,-1,-1,91,-1,-1,-1,-1,-1,-1,-1,-1,-1,-1,-1,-1,-1,-1,-1,-1,-1,-1,-1,-1,-1,-1,-1,-1,-1,-1,-1,-1,-1,-1,-1,-1,-1,-1,-1,-1,-1,-1],"loss_changes":[5.519407E2,4.804277E1,6.1001526E1,1.4790009E1,1.5991343E1,1.8818495E1,6.13443E0,5.056094E0,4.3404846E0,6.634117E0,4.667349E0,4.445492E0,5.404377E0,3.3544846E0,5.710144E-1,3.694127E0,0E0,0E0,1.8189163E0,5.5200815E0,5.215584E0,3.0248985E0,1.4947112E0,3.4525833E0,3.6330857E0,4.4878173E0,3.6764078E0,1.5503082E0,4.5598063E0,0E0,3.4754972E0,3.2111096E0,1.4451561E0,0E0,1.3730316E0,4.199912E0,3.7794485E0,5.7564535E0,1.2917204E0,4.059288E0,1.4726257E0,0E0,0E0,2.965767E0,4.153395E0,3.292242E0,0E0,3.3159752E0,2.3962412E0,2.398469E0,1.3634704E0,1.5268154E0,0E0,0E0,4.0044703E0,0E0,0E0,0E0,0E0,0E0,0E0,0E0,0E0,0E0,0E0,0E0,0E0,0E0,0E0,0E0,0E0,0E0,0E0,0E0,0E0,0E0,0E0,0E0,0E0,0E0,0E0,0E0,0E0,0E0,0E0,0E0,0E0,0E0,0E0,0E0,0E0,0E0,0E0],"parents":[2147483647,0,0,1,1,2,2,3,3,4,4,5,5,6,6,7,7,8,8,9,9,10,10,11,11,12,12,13,13,14,14,15,15,18,18,19,19,20,20,21,21,22,22,23,23,24,24,25,25,26,26,27,27,28,28,30,30,31,31,32,32,34,34,35,35,36,36,37,37,38,38,39,39,40,40,43,43,44,44,45,45,47,47,48,48,49,49,50,50,51,51,54,54],"right_children":[2,4,6,8,10,12,14,16,18,20,22,24,26,28,30,32,-1,-1,34,36,38,40,42,44,46,48,50,52,54,-1,56,58,60,-1,62,64,66,68,70,72,74,-1,-1,76,78,80,-1,82,84,86,88,90,-1,-1,92,-1,-1,-1,-1,-1,-1,-1,-1,-1,-1,-1,-1,-1,-1,-1,-1,-1,-1,-1,-1,-1,-1,-1,-1,-1,-1,-1,-1,-1,-1,-1,-1,-1,-1,-1,-1,-1,-1],"split_conditions":[1.9673792E1,1.393776E1,2.5304455E1,5.49078E-1,6.2803006E-1,5.8618534E-1,7.9325933E0,9.131823E-1,9.910732E0,5.650286E0,3.5099643E-1,5.030541E-1,7.798551E-1,4.9111623E-1,9.4713014E-1,5.7829684E-1,4.8405677E-2,-7.0919015E-2,2.1399425E-1,3.9788806E0,2.1594651E-1,4.0236634E-1,1.5988767E-1,9.302961E-1,2.4418015E1,2.3221166E-1,1.1441495E1,7.800735E0,9.281134E-2,7.850778E-2,4.9015546E-1,3.2781973E-1,2.249552E-1,5.9943288E-3,1.0024745E-1,5.159679E-1,6.055436E-1,1.1983229E-1,3.4159493E-1,3.8535473E-1,3.132741E-1,-1.2201608E-2,4.2143416E-2,4.144331E-1,4.1392457E-1,2.6586875E-1,-3.3243775E-2,6.414155E-1,6.2528455E-1,8.4690255E-1,3.830115E-1,7.903794E-3,3.149245E-3,-3.5239737E-2,5.224108E-1,-7.7039287E-3,6.687061E-2,3.4677628E-3,-4.3022167E-2,-6.4164095E-2,-1.1135045E-2,-1.9284779E-3,-5.4174025E-2,5.204307E-2,-1.8404417E-2,-4.664966E-2,2.2583304E-2,-5.0784387E-2,7.206633E-3,8.92692E-3,5.2061416E-2,-4.115679E-2,1.2135952E-2,-6.224186E-2,-2.6098743E-2,-1.3169895E-2,5.7011437E-2,-5.193892E-2,3.996569E-2,5.3131577E-2,1.3919133E-2,4.5766782E-2,-2.5744269E-2,-1.3942464E-2,-5.7050474E-2,6.3120924E-2,6.328811E-3,-5.090618E-2,8.700282E-3,6.3684518E-3,7.104318E-2,-2.2572448E-2,5.94471E-2],"split_indices":[0,0,0,6,6,6,4,8,0,4,3,6,9,6,8,8,0,0,5,4,7,8,7,8,0,8,4,4,7,0,3,5,3,0,3,6,6,8,5,5,3,0,0,9,5,8,0,6,6,9,3,7,0,0,6,0,0,0,0,0,0,0,0,0,0,0,0,0,0,0,0,0,0,0,0,0,0,0,0,0,0,0,0,0,0,0,0,0,0,0,0,0,0],"split_type":[0,0,0,0,0,0,0,0,0,0,0,0,0,0,0,0,0,0,0,0,0,0,0,0,0,0,0,0,0,0,0,0,0,0,0,0,0,0,0,0,0,0,0,0,0,0,0,0,0,0,0,0,0,0,0,0,0,0,0,0,0,0,0,0,0,0,0,0,0,0,0,0,0,0,0,0,0,0,0,0,0,0,0,0,0,0,0,0,0,0,0,0,0],"sum_hessian":[5.6519196E2,3.1331345E2,2.5187852E2,2.0010942E2,1.1320403E2,9.040594E1,1.6147258E2,2.5169886E1,1.7493953E2,6.853468E1,4.4669346E1,6.2134388E1,2.8271551E1,2.0076462E1,1.4139612E2,2.3697866E1,1.47202E0,1.0663102E2,6.830852E1,2.3154684E1,4.538E1,4.1265965E1,3.4033804E0,3.426057E1,2.7873816E1,1.8854906E1,9.416646E0,1.2198935E1,7.877528E0,1.3515544E2,6.2406735E0,1.5408007E1,8.28986E0,1.1288902E0,6.717963E1,6.788476E0,1.6366207E1,3.6303165E1,9.076837E0,1.5000127E1,2.6265839E1,2.183867E0,1.2195135E0,3.1293732E1,2.9668405E0,2.5902077E1,1.9717379E0,4.631141E0,1.4223764E1,6.9391575E0,2.4774885E0,1.0975842E1,1.2230917E0,2.225381E0,5.652148E0,1.9469484E0,4.2937255E0,1.0866921E1,4.5410852E0,6.1330423E0,2.1568172E0,1.3583348E0,6.582129E1,2.7191849E0,4.069291E0,1.4716011E1,1.6501968E0,3.908286E0,3.239488E1,2.9261343E0,6.1507015E0,1.0333213E1,4.6669145E0,2.0577356E1,5.6884813E0,1.2272314E0,3.00665E1,1.2386246E0,1.7282159E0,7.198226E0,1.8703852E1,2.4859257E0,2.1452153E0,6.4031396E0,7.8206253E0,2.9794397E0,3.9597175E0,1.2317338E0,1.2457547E0,1.225191E0,9.750651E0,1.4728338E0,4.1793137E0],"tree_param":{"num_deleted":"0","num_feature":"10","num_nodes":"93","size_leaf_vector":"1"}},{"base_weights":[1.6861308E-2,1.2059332E0,-7.639423E-1,1.7750132E-1,1.3863767E0,-6.439478E-2,-1.1473421E0,1.100921E0,-2.0382676E-1,1.0600905E0,1.5030019E0,-5.568064E-1,2.4937904E-1,-1.2706331E0,-2.5001368E-1,-6.4264187E-3,6.856456E-2,4.5410886E-1,-3.3915392E-1,-3.6552732E-3,1.1056868E0,1.9082472E-2,1.5144869E0,-1.141106E0,-4.1989768E-1,1.1095542E-1,8.300763E-1,-8.45996E-1,-6.8248615E-2,-5.614091E-1,3.7657017E-1,-2.570245E-2,9.422498E-1,-5.1138294E-1,3.7868682E-1,1.3476896E-1,1.152066E0,7.767772E-2,1.0589327E0,-6.0825814E-2,-1.7550386E-2,1.2602407E-1,-6.697803E-1,6.671182E-1,-1.824938E-1,-2.9049307E-2,1.0109754E0,-9.66794E-1,-1.5388504E-1,-6.836522E-1,2.6041722E-2,7.203047E-1,-4.7951907E-2,6.0524024E-2,1.2599364E-2,-6.358414E-2,-1.3745013E-2,5.3587038E-2,-3.4035705E-2,4.7598463E-2,-3.685395E-2,3.9815567E-2,6.478076E-2,9.148948E-4,5.7877418E-2,-4.9990702E-2,1.8485343E-2,-3.7866022E-2,2.587356E-2,-2.648278E-2,3.8318776E-2,-1.8193765E-2,2.2830127E-2,1.9819781E-2,7.032701E-2,3.8386018E-3,-5.045065E-2,-4.5147773E-2,3.7276268E-2,-1.6768046E-2,-5.5645235E-2,-2.0300694E-2,4.8099E-2],"categories":[],"categories_nodes":[],"categories_segments":[],"categories_sizes":[],"default_left":[0,0,0,0,0,0,0,0,0,0,0,0,0,0,0,0,0,0,0,0,0,0,0,0,0,0,0,0,0,0,0,0,0,0,0,0,0,0,0,0,0,0,0,0,0,0,0,0,0,0,0,0,0,0,0,0,0,0,0,0,0,0,0,0,0,0,0,0,0,0,0,0,0,0,0,0,0,0,0,0,0,0,0],"id":8,"left_children":[1,3,5,7,9,11,13,15,17,19,21,23,25,27,29,-1,-1,31,33,-1,35,-1,37,39,41,43,45,47,-1,49,51,-1,53,55,57,59,61,-1,63,-1,-1,65,67,69,71,-1,73,75,77,79,-1,81,-1,-1,-1,-1,-1,-1,-1,-1,-1,-1,-1,-1,-1,-1,-1,-1,-1,-1,-1,-1,-1,-1,-1,-1,-1,-1,-1,-1,-1,-1,-1],"loss_changes":[5.178055E2,4.0776764E1,9.022287E1,1.2247163E1,5.5574646E0,1.8718433E1,2.3735779E1,3.5451965E0,2.38067E0,2.8128242E0,1.1740723E0,3.289628E0,5.867385E0,6.4930115E0,5.5788407E0,0E0,0E0,2.7026677E0,2.8288288E0,0E0,2.1363907E0,0E0,7.4554443E-1,7.1167946E-2,5.5070963E0,1.0080969E1,4.190817E0,2.9725037E0,0E0,2.8403254E0,5.1583066E0,0E0,3.3808994E-1,2.817655E0,4.179591E0,3.1615968E0,1.4419708E0,0E0,1.3899364E0,0E0,0E0,4.0248938E0,3.2424936E0,2.9351034E0,4.887702E0,0E0,2.573079E0,1.4695396E0,5.212055E0,2.2138891E0,0E0,2.6526952E0,0E0,0E0,0E0,0E0,0E0,0E0,0E0,0E0,0E0,0E0,0E0,0E0,0E0,0E0,0E0,0E0,0E0,0E0,0E0,0E0,0E0,0E0,0E0,0E0,0E0,0E0,0E0,0E0,0E0,0E0,0E0],"parents":[2147483647,0,0,1,1,2,2,3,3,4,4,5,5,6,6,7,7,8,8,9,9,10,10,11,11,12,12,13,13,14,14,17,17,18,18,20,20,22,22,23,23,24,24,25,25,26,26,27,27,29,29,30,30,32,32,33,33,34,34,35,35,36,36,38,38,41,41,42,42,43,43,44,44,46,46,47,47,48,48,49,49,51,51],"right_children":[2,4,6,8,10,12,14,16,18,20,22,24,26,28,30,-1,-1,32,34,-1,36,-1,38,40,42,44,46,48,-1,50,52,-1,54,56,58,60,62,-1,64,-1,-1,66,68,70,72,-1,74,76,78,80,-1,82,-1,-1,-1,-1,-1,-1,-1,-1,-1,-1,-1,-1,-1,-1,-1,-1,-1,-1,-1,-1,-1,-1,-1,-1,-1,-1,-1,-1,-1,-1,-1],"split_conditions":[5.394522E1,1.9393717E1,6.126191E1,4.9093815E1,2.5940346E1,2.616497E-1,3.132741E-1,4.510217E0,1.4370903E0,4.217136E-1,6.019797E0,1.227933E-1,2.5304455E1,6.452058E1,7.8179437E-1,-6.4264187E-3,6.856456E-2,4.6408873E0,8.155452E0,-3.6552732E-3,1.6035575E0,1.9082472E-2,4.8757305E1,6.826638E-1,1.8885659E-1,4.969478E0,4.709335E-1,6.4145065E1,-6.8248615E-2,4.549659E-1,9.898331E-1,-2.570245E-2,5.650286E0,5.2531886E-1,1.7623562E1,9.139522E-1,7.4289045E0,7.767772E-2,4.9093815E1,-6.0825814E-2,-1.7550386E-2,4.397687E-1,9.363837E0,1.1762739E1,1.034129E1,-2.9049307E-2,5.5902195E1,4.7972E-1,1.1479772E1,6.268769E-1,2.6041722E-2,5.0514936E0,-4.7951907E-2,6.0524024E-2,1.2599364E-2,-6.358414E-2,-1.3745013E-2,5.3587038E-2,-3.4035705E-2,4.7598463E-2,-3.685395E-2,3.9815567E-2,6.478076E-2,9.148948E-4,5.7877418E-2,-4.9990702E-2,1.8485343E-2,-3.7866022E-2,2.587356E-2,-2.648278E-2,3.8318776E-2,-1.8193765E-2,2.2830127E-2,1.9819781E-2,7.032701E-2,3.8386018E-3,-5.045065E-2,-4.5147773E-2,3.7276268E-2,-1.6768046E-2,-5.5645235E-2,-2.0300694E-2,4.8099E-2],"split_indices":[1,0,1,1,0,3,3,4,2,9,4,3,0,1,9,0,0,4,4,0,2,0,1,6,3,2,6,1,0,3,9,0,4,9,0,2,4,0,1,0,0,9,4,0,4,0,1,6,0,9,0,4,0,0,0,0,0,0,0,0,0,0,0,0,0,0,0,0,0,0,0,0,0,0,0,0,0,0,0,0,0,0,0],"split_type":[0,0,0,0,0,0,0,0,0,0,0,0,0,0,0,0,0,0,0,0,0,0,0,0,0,0,0,0,0,0,0,0,0,0,0,0,0,0,0,0,0,0,0,0,0,0,0,0,0,0,0,0,0,0,0,0,0,0,0,0,0,0,0,0,0,0,0,0,0,0,0,0,0,0,0,0,0,0,0,0,0,0,0],"sum_hessian":[5.557283E2,2.2005934E2,3.3566895E2,3.3143375E1,1.8691597E2,1.192516E2,2.1641736E2,9.135028E0,2.4008348E1,5.1874546E1,1.3504143E2,4.6112217E1,7.313938E1,1.8990834E2,2.6509014E1,1.7413292E0,7.3936987E0,3.6938574E0,2.0314491E1,1.9831934E0,4.9891354E1,1.7161281E0,1.333253E2,7.361212E0,3.8751003E1,6.0022583E1,1.3116801E1,3.6333332E1,1.5357501E2,1.7777893E1,8.731121E0,1.2203642E0,2.4734933E0,1.6615582E1,3.6989095E0,2.4526436E0,4.743871E1,1.20574776E2,1.2750517E1,6.227163E0,1.1340488E0,1.2323459E1,2.6427546E1,2.0291512E1,3.973107E1,1.2391825E0,1.1877619E1,3.0596308E1,5.737023E0,1.630454E1,1.4733533E0,7.310396E0,1.420725E0,1.23855E0,1.2349434E0,2.903439E0,1.3712142E1,2.2290378E0,1.4698716E0,1.2185627E0,1.2340809E0,1.552091E1,3.19178E1,1.2063323E0,1.1544185E1,1.6406345E0,1.0682824E1,2.495002E1,1.477526E0,1.2219486E0,1.9069563E1,3.1283237E1,8.447832E0,5.4351892E0,6.4424295E0,1.1578627E0,2.9438446E1,3.1279666E0,2.6090562E0,9.9844885E0,6.3200517E0,1.1713529E0,6.1390433E0],"tree_param":{"num_deleted":"0","num_feature":"10","num_nodes":"83","size_leaf_vector":"1"}},{"base_weights":[-3.58786E-2,1.1502512E0,-8.281065E-1,1.2778127E-1,1.3240268E0,-3.4190655E-1,-1.2809159E0,9.505344E-1,-1.1658321E-1,1.4589535E0,9.918103E-1,-7.7416724E-1,1.4983367E-2,-1.3258241E0,7.537874E-2,1.2999651E-3,1.1688259E0,7.799338E-1,-3.2322818E-1,1.0219514E0,7.443347E-2,-2.1313868E-1,1.0557779E0,-9.1366917E-1,-3.338672E-1,-1.16242826E-1,6.982502E-1,-6.6542506E-2,-1.5270786E-2,-4.620017E-2,9.20918E-1,2.546424E-2,6.778849E-2,1.0472324E0,3.145625E-3,-8.4217864E-1,-9.7763374E-2,1.2105331E0,-1.5730387E-2,2.8112669E-2,-4.085008E-2,7.9416126E-1,1.2188406E0,-9.71164E-1,-2.673036E-1,-5.2480984E-1,3.9763182E-2,7.4618333E-4,-9.4213945E-1,-3.3036935E-1,9.3979913E-1,-1.0815861E-3,6.713425E-2,1.5930383E-2,6.399232E-2,-5.8963086E-2,1.7033875E-2,-3.4989066E-2,1.2795684E-2,6.747869E-2,4.635259E-3,4.939499E-2,3.6930514E-3,7.221927E-3,6.288474E-2,-5.513295E-2,-3.0465145E-2,-3.5591308E-2,2.7287988E-2,-6.38454E-2,-1.0442955E-2,5.037363E-3,-5.5055585E-2,1.7017039E-2,-5.89579E-2,-5.3628244E-2,2.8476624E-2,-1.2893872E-2,5.520571E-2],"categories":[],"categories_nodes":[],"categories_segments":[],"categories_sizes":[],"default_left":[0,0,0,0,0,0,0,0,0,0,0,0,0,0,0,0,0,0,0,0,0,0,0,0,0,0,0,0,0,0,0,0,0,0,0,0,0,0,0,0,0,0,0,0,0,0,0,0,0,0,0,0,0,0,0,0,0,0,0,0,0,0,0,0,0,0,0,0,0,0,0,0,0,0,0,0,0,0,0],"id":9,"left_children":[1,3,5,7,9,11,13,15,17,19,21,23,25,27,29,-1,31,33,35,37,-1,39,41,43,45,47,49,-1,-1,-1,51,-1,-1,53,-1,55,57,59,-1,-1,-1,61,63,65,67,69,-1,71,73,75,77,-1,-1,-1,-1,-1,-1,-1,-1,-1,-1,-1,-1,-1,-1,-1,-1,-1,-1,-1,-1,-1,-1,-1,-1,-1,-1,-1,-1],"loss_changes":[5.1205774E2,3.8605316E1,7.148363E1,6.706919E0,6.909149E0,2.452474E1,1.0380493E1,1.5078917E0,5.1033125E0,1.7269897E-1,4.6159134E0,4.1100197E0,7.973098E0,4.3173218E-1,6.221665E0,0E0,6.6999435E-2,9.303887E-1,2.490341E0,3.2782812E0,0E0,2.1935973E0,1.3469048E0,1.747551E0,4.485795E0,7.217748E0,3.869369E0,0E0,0E0,0E0,1.5968153E0,0E0,0E0,2.2317648E-1,0E0,3.0046792E0,3.6836443E0,1.4726954E0,0E0,0E0,0E0,3.2351046E0,1.1357269E0,1.6700859E0,2.4816954E0,3.7119431E0,0E0,7.430208E0,3.2186928E0,2.9243739E0,2.6186962E0,0E0,0E0,0E0,0E0,0E0,0E0,0E0,0E0,0E0,0E0,0E0,0E0,0E0,0E0,0E0,0E0,0E0,0E0,0E0,0E0,0E0,0E0,0E0,0E0,0E0,0E0,0E0,0E0],"parents":[2147483647,0,0,1,1,2,2,3,3,4,4,5,5,6,6,7,7,8,8,9,9,10,10,11,11,12,12,13,13,14,14,16,16,17,17,18,18,19,19,21,21,22,22,23,23,24,24,25,25,26,26,30,30,33,33,35,35,36,36,37,37,41,41,42,42,43,43,44,44,45,45,47,47,48,48,49,49,50,50],"right_children":[2,4,6,8,10,12,14,16,18,20,22,24,26,28,30,-1,32,34,36,38,-1,40,42,44,46,48,50,-1,-1,-1,52,-1,-1,54,-1,56,58,60,-1,-1,-1,62,64,66,68,70,-1,72,74,76,78,-1,-1,-1,-1,-1,-1,-1,-1,-1,-1,-1,-1,-1,-1,-1,-1,-1,-1,-1,-1,-1,-1,-1,-1,-1,-1,-1,-1],"split_conditions":[5.425282E1,1.9393717E1,6.441011E1,4.8757305E1,4.6107677E1,2.616497E-1,3.6526808E-1,2.6586875E-1,1.4370903E0,2.342646E1,1.7564348E0,1.4459809E1,2.5304455E1,3.6483148E-1,1.4959338E-1,1.2999651E-3,5.54394E-1,1.4961394E1,1.9740011E-1,2.617096E-1,7.443347E-2,9.139522E-1,3.9696205E-1,9.060986E-1,6.329172E1,4.6860087E-1,5.493407E1,-6.6542506E-2,-1.5270786E-2,-4.620017E-2,2.2237692E1,2.546424E-2,6.778849E-2,7.302919E-1,3.145625E-3,6.7717916E-1,1.16779715E-1,7.9596615E-1,-1.5730387E-2,2.8112669E-2,-4.085008E-2,2.8833345E-1,4.2323676E-1,8.1790274E-1,3.2502263E0,2.4936844E-1,3.9763182E-2,9.985997E0,3.1762958E-2,4.7018582E-1,5.3083105E0,-1.0815861E-3,6.713425E-2,1.5930383E-2,6.399232E-2,-5.8963086E-2,1.7033875E-2,-3.4989066E-2,1.2795684E-2,6.747869E-2,4.635259E-3,4.939499E-2,3.6930514E-3,7.221927E-3,6.288474E-2,-5.513295E-2,-3.0465145E-2,-3.5591308E-2,2.7287988E-2,-6.38454E-2,-1.0442955E-2,5.037363E-3,-5.5055585E-2,1.7017039E-2,-5.89579E-2,-5.3628244E-2,2.8476624E-2,-1.2893872E-2,5.520571E-2],"split_indices":[1,0,1,1,1,3,3,8,2,0,2,0,0,7,7,0,8,0,3,7,0,2,8,8,1,5,1,0,0,0,0,0,0,9,0,8,7,8,0,0,0,8,9,9,2,8,0,2,7,5,2,0,0,0,0,0,0,0,0,0,0,0,0,0,0,0,0,0,0,0,0,0,0,0,0,0,0,0,0],"split_type":[0,0,0,0,0,0,0,0,0,0,0,0,0,0,0,0,0,0,0,0,0,0,0,0,0,0,0,0,0,0,0,0,0,0,0,0,0,0,0,0,0,0,0,0,0,0,0,0,0,0,0,0,0,0,0,0,0,0,0,0,0,0,0,0,0,0,0,0,0,0,0,0,0,0,0,0,0,0,0],"sum_hessian":[5.429111E2,2.1722627E2,3.256848E2,3.1808E1,1.8541827E2,1.5789818E2,1.6778664E2,6.6221156E0,2.5185886E1,1.2945126E2,5.596702E1,7.087999E1,8.701818E1,1.6243086E2,5.3557715E0,1.4786512E0,5.1434646E0,4.1981573E0,2.0987728E1,1.049547E1,1.1895579E2,2.7038062E0,5.3263214E1,5.3009644E1,1.7870348E1,7.36945E1,1.3323675E1,1.6133197E2,1.098882E0,2.4120545E0,2.9437172E0,1.958414E0,3.1850505E0,2.7226486E0,1.4755087E0,5.528205E0,1.5459524E1,9.280352E0,1.2151186E0,1.2139437E0,1.4898626E0,2.2705286E1,3.0557928E1,4.8218098E1,4.791546E0,1.5743277E1,2.1270711E0,6.542596E1,8.26855E0,2.463846E0,1.085983E1,1.2033117E0,1.7404056E0,1.2323142E0,1.4903344E0,4.3045573E0,1.2236474E0,5.359005E0,1.0100518E1,8.069333E0,1.2110183E0,1.7599936E1,5.1053505E0,1.23116E0,2.9326767E1,3.38649E1,1.4353198E1,3.1783652E0,1.6131804E0,3.757452E0,1.1985825E1,6.0815136E1,4.6108203E0,1.22177E0,7.04678E0,1.2450885E0,1.2187575E0,1.2414693E0,9.6183605E0],"tree_param":{"num_deleted":"0","num_feature":"10","num_nodes":"79","size_leaf_vector":"1"}},{"base_weights":[1.2230327E-2,1.0904132E0,-7.5093085E-1,5.266354E-1,1.4111477E0,-2.3952368E-1,-1.2388029E0,1.2081091E0,3.126547E-1,4.5744434E-1,1.443274E0,-6.1072564E-1,2.1460931E-1,-1.28581E0,1.5698563E-1,1.6245419E-1,7.2247215E-2,1.6875641E-2,5.9344816E-1,-1.5451017E-2,8.279548E-1,2.218463E-2,7.2430566E-2,-6.643676E-1,5.4516226E-2,6.589477E-2,7.6370335E-1,-1.3200924E0,-9.462848E-1,7.546755E-1,-3.7775934E-2,4.9553774E-2,-4.2101124E-1,-1.714977E-1,6.1662745E-1,9.4644725E-1,1.0567431E-1,3.2050775E-3,5.5321958E-2,-1.0119613E0,-5.265184E-1,-7.871991E-2,6.9466555E-1,1.2748536E0,8.278388E-2,-1.3262371E0,-1.39408475E-2,-4.069016E-1,-1.2540989E0,1.9414792E-3,6.116E-2,-3.638944E-2,3.9040304E-3,2.7490443E-2,-1.7092438E-2,5.939428E-2,-2.2812419E-2,5.4867264E-2,7.533673E-3,-3.285883E-2,2.7276997E-2,-3.38596E-2,-6.1525058E-2,-5.5541612E-2,-2.0168485E-2,8.353854E-3,-2.7754137E-2,-3.519592E-3,5.798307E-2,1.0392797E-2,7.81692E-2,-3.41868E-2,4.150484E-2,-6.6585556E-2,-1.7900657E-2,3.387553E-2,-3.86344E-2,-6.6330634E-2,-1.6201427E-2],"categories":[],"categories_nodes":[],"categories_segments":[],"categories_sizes":[],"default_left":[0,0,0,0,0,0,0,0,0,0,0,0,0,0,0,0,0,0,0,0,0,0,0,0,0,0,0,0,0,0,0,0,0,0,0,0,0,0,0,0,0,0,0,0,0,0,0,0,0,0,0,0,0,0,0,0,0,0,0,0,0,0,0,0,0,0,0,0,0,0,0,0,0,0,0,0,0,0,0],"id":10,"left_children":[1,3,5,7,9,11,13,15,17,19,21,23,25,27,29,31,-1,33,35,-1,37,-1,-1,39,-1,41,43,45,47,49,-1,-1,51,53,55,57,59,-1,-1,61,63,65,67,69,71,73,-1,75,77,-1,-1,-1,-1,-1,-1,-1,-1,-1,-1,-1,-1,-1,-1,-1,-1,-1,-1,-1,-1,-1,-1,-1,-1,-1,-1,-1,-1,-1,-1],"loss_changes":[4.3901453E2,3.924176E1,7.765285E1,1.1547436E1,3.6398926E0,2.605308E1,1.0676819E1,4.5183563E0,5.270964E0,1.9704622E0,7.91626E-2,8.468689E0,5.657593E0,5.498352E-1,3.893089E0,2.6755502E0,0E0,3.7205513E0,5.511442E0,0E0,8.527043E-1,0E0,0E0,3.439289E0,0E0,5.155612E0,5.0464783E0,5.122223E-1,2.429451E0,1.3549969E0,0E0,0E0,5.8395755E-1,3.2759027E0,5.3623867E0,2.089939E0,5.327569E0,0E0,0E0,8.0957603E-1,3.9731712E0,5.5380836E0,3.849516E0,2.2567081E0,4.8160243E0,2.4816895E-1,0E0,3.6624994E0,2.9802322E-1,0E0,0E0,0E0,0E0,0E0,0E0,0E0,0E0,0E0,0E0,0E0,0E0,0E0,0E0,0E0,0E0,0E0,0E0,0E0,0E0,0E0,0E0,0E0,0E0,0E0,0E0,0E0,0E0,0E0,0E0],"parents":[2147483647,0,0,1,1,2,2,3,3,4,4,5,5,6,6,7,7,8,8,9,9,10,10,11,11,12,12,13,13,14,14,15,15,17,17,18,18,20,20,23,23,25,25,26,26,27,27,28,28,29,29,32,32,33,33,34,34,35,35,36,36,39,39,40,40,41,41,42,42,43,43,44,44,45,45,47,47,48,48],"right_children":[2,4,6,8,10,12,14,16,18,20,22,24,26,28,30,32,-1,34,36,-1,38,-1,-1,40,-1,42,44,46,48,50,-1,-1,52,54,56,58,60,-1,-1,62,64,66,68,70,72,74,-1,76,78,-1,-1,-1,-1,-1,-1,-1,-1,-1,-1,-1,-1,-1,-1,-1,-1,-1,-1,-1,-1,-1,-1,-1,-1,-1,-1,-1,-1,-1,-1],"split_conditions":[5.457225E1,2.5089725E1,6.452058E1,4.5843365E1,6.7448797E0,2.8886378E-1,3.669251E-1,5.9507117E0,1.9673792E1,5.9787196E-1,2.1473584E0,9.875516E0,2.1594651E-1,1.6660334E1,4.4816902E-1,3.1709042E-1,7.2247215E-2,7.9325933E0,2.2739103E1,-1.5451017E-2,2.6839293E1,2.218463E-2,7.2430566E-2,3.3551106E0,5.4516226E-2,2.5642588E1,4.1032907E-1,3.435014E-1,1.8027855E1,2.2237692E1,-3.7775934E-2,4.9553774E-2,2.2739103E1,1.6035575E0,8.97112E0,9.543234E0,5.6796393E0,3.2050775E-3,5.5321958E-2,7.0258844E-1,4.9798578E-1,4.2926198E-1,5.6922546E1,3.3565742E-1,2.0936773E1,3.334963E-1,-1.39408475E-2,1.0566686E-1,8.0662E0,1.9414792E-3,6.116E-2,-3.638944E-2,3.9040304E-3,2.7490443E-2,-1.7092438E-2,5.939428E-2,-2.2812419E-2,5.4867264E-2,7.533673E-3,-3.285883E-2,2.7276997E-2,-3.38596E-2,-6.1525058E-2,-5.5541612E-2,-2.0168485E-2,8.353854E-3,-2.7754137E-2,-3.519592E-3,5.798307E-2,1.0392797E-2,7.81692E-2,-3.41868E-2,4.150484E-2,-6.6585556E-2,-1.7900657E-2,3.387553E-2,-3.86344E-2,-6.6330634E-2,-1.6201427E-2],"split_indices":[1,0,1,1,4,3,3,4,0,9,2,4,7,0,5,3,0,4,0,0,0,0,0,4,0,0,5,7,0,0,0,0,0,2,4,2,2,0,0,9,9,5,1,5,0,3,0,7,2,0,0,0,0,0,0,0,0,0,0,0,0,0,0,0,0,0,0,0,0,0,0,0,0,0,0,0,0,0,0],"split_type":[0,0,0,0,0,0,0,0,0,0,0,0,0,0,0,0,0,0,0,0,0,0,0,0,0,0,0,0,0,0,0,0,0,0,0,0,0,0,0,0,0,0,0,0,0,0,0,0,0,0,0,0,0,0,0,0,0,0,0,0,0,0,0,0,0,0,0,0,0,0,0,0,0,0,0,0,0,0,0],"sum_hessian":[5.3154877E2,2.2012732E2,3.1142148E2,8.077873E1,1.3934859E2,1.5277135E2,1.5865012E2,1.8192951E1,6.258578E1,5.0377073E0,1.3431088E2,8.38713E1,6.890005E1,1.5355743E2,5.0926857E0,3.6709986E0,1.4521953E1,3.0995834E1,3.1589947E1,1.6957393E0,3.3419678E0,1.1601689E0,1.3315071E2,8.189811E1,1.9731895E0,5.5097622E1,1.3802424E1,1.368513E2,1.6706131E1,3.1816614E0,1.9110243E0,1.2281758E0,2.442823E0,2.4130764E1,6.865071E0,1.778135E1,1.3808598E1,1.2215538E0,2.120414E0,2.1455612E1,6.04425E1,4.550619E1,9.591432E0,7.385814E0,6.41661E0,1.3577641E2,1.0748953E0,6.9135013E0,9.79263E0,1.6870065E0,1.4946549E0,1.2291023E0,1.2137206E0,4.1846147E0,1.994615E1,4.4098344E0,2.4552364E0,1.4628469E1,3.1528788E0,4.86949E0,8.939108E0,1.0093155E1,1.1362456E1,9.125195E0,5.1317307E1,3.0445814E1,1.5060376E1,3.946642E0,5.6447897E0,1.9382985E0,5.4475155E0,3.2095966E0,3.2070134E0,1.3463979E2,1.136617E0,1.5288532E0,5.3846483E0,8.688841E0,1.1037891E0],"tree_param":{"num_deleted":"0","num_feature":"10","num_nodes":"79","size_leaf_vector":"1"}},{"base_weights":[-1.3122729E-2,1.0623862E0,-7.7421117E-1,2.0001495E-1,1.2336013E0,-3.3158165E-1,-1.2090622E0,5.9937954E-2,3.4255076E-2,8.9137125E-1,1.3742511E0,-5.764851E-1,1.1833979E-1,-1.2574263E0,-3.636846E-1,2.2801952E-1,-4.6968633E-1,1.0038577E0,1.2774703E-1,8.931928E-1,7.130752E-2,-1.0626612E0,-4.2154086E-1,-1.2278906E-1,5.2184796E-1,-6.3999996E-2,-8.731944E-1,1.1216549E-1,-5.80432E-2,-4.594458E-2,3.2582885E-1,-6.0072638E-2,1.8684833E-1,1.0928808E0,-2.1922514E-2,-3.4860703E-1,8.217834E-1,1.0484536E0,-2.5705308E-2,-1.1090713E0,-1.403634E-2,-1.8142189E-1,-7.15322E-1,-7.544651E-1,1.0851638E-1,8.4759486E-1,-1.8668051E-1,-1.4918667E-1,-1.1375866E0,8.652102E-1,-5.2557915E-2,2.6776198E-2,-1.05133075E-2,6.269371E-2,-3.9367404E-2,1.1870877E-3,5.738566E-2,-3.3499144E-2,2.689212E-2,2.5687102E-2,-3.5077225E-2,9.554434E-3,5.288577E-2,5.708055E-2,1.5428773E-3,-3.6160152E-2,-6.2586956E-2,-1.6048472E-2,2.7589375E-2,-4.130001E-2,5.7729594E-3,-6.2408455E-2,-9.812323E-3,3.179642E-2,-1.2256908E-2,5.3299744E-2,-7.92757E-3,-3.005807E-2,5.2233297E-2,-4.135574E-2,2.5305355E-2,-1.1841147E-2,-6.183015E-2,-7.3330114E-3,6.6300794E-2],"categories":[],"categories_nodes":[],"categories_segments":[],"categories_sizes":[],"default_left":[0,0,0,0,0,0,0,0,0,0,0,0,0,0,0,0,0,0,0,0,0,0,0,0,0,0,0,0,0,0,0,0,0,0,0,0,0,0,0,0,0,0,0,0,0,0,0,0,0,0,0,0,0,0,0,0,0,0,0,0,0,0,0,0,0,0,0,0,0,0,0,0,0,0,0,0,0,0,0,0,0,0,0,0,0],"id":11,"left_children":[1,3,5,7,9,11,13,-1,15,17,19,21,23,25,27,29,31,33,35,37,-1,39,41,43,45,-1,47,49,-1,-1,51,-1,53,55,57,59,61,63,-1,65,-1,67,69,71,73,75,77,79,81,83,-1,-1,-1,-1,-1,-1,-1,-1,-1,-1,-1,-1,-1,-1,-1,-1,-1,-1,-1,-1,-1,-1,-1,-1,-1,-1,-1,-1,-1,-1,-1,-1,-1,-1,-1],"loss_changes":[4.3338196E2,3.2149124E1,5.9273575E1,6.173557E0,7.5773926E0,1.714948E1,5.921402E0,0E0,3.3513687E0,4.6915436E0,1.9158325E0,7.12656E0,5.4611015E0,1.5873718E-1,3.866468E0,3.0669532E0,4.81447E0,4.4767036E0,3.0470662E0,3.8420525E0,0E0,5.466614E-1,5.3660107E0,5.2732134E0,4.990967E0,0E0,1.9957504E0,7.111504E0,0E0,0E0,2.7510796E0,0E0,7.121515E0,2.6041489E0,2.128499E0,2.0811436E0,3.479054E-1,1.2866106E0,0E0,3.0474854E-1,0E0,4.7004433E0,3.2858906E0,2.4142542E0,5.1698494E0,3.3607073E0,4.4120336E0,2.2741985E0,4.3275452E-1,2.4541376E0,0E0,0E0,0E0,0E0,0E0,0E0,0E0,0E0,0E0,0E0,0E0,0E0,0E0,0E0,0E0,0E0,0E0,0E0,0E0,0E0,0E0,0E0,0E0,0E0,0E0,0E0,0E0,0E0,0E0,0E0,0E0,0E0,0E0,0E0,0E0],"parents":[2147483647,0,0,1,1,2,2,3,3,4,4,5,5,6,6,8,8,9,9,10,10,11,11,12,12,13,13,14,14,15,15,16,16,17,17,18,18,19,19,21,21,22,22,23,23,24,24,26,26,27,27,30,30,32,32,33,33,34,34,35,35,36,36,37,37,39,39,41,41,42,42,43,43,44,44,45,45,46,46,47,47,48,48,49,49],"right_children":[2,4,6,8,10,12,14,-1,16,18,20,22,24,26,28,30,32,34,36,38,-1,40,42,44,46,-1,48,50,-1,-1,52,-1,54,56,58,60,62,64,-1,66,-1,68,70,72,74,76,78,80,82,84,-1,-1,-1,-1,-1,-1,-1,-1,-1,-1,-1,-1,-1,-1,-1,-1,-1,-1,-1,-1,-1,-1,-1,-1,-1,-1,-1,-1,-1,-1,-1,-1,-1,-1,-1],"split_conditions":[5.457225E1,1.9765879E1,6.452058E1,4.7520794E1,2.5940346E1,1.8529549E1,3.334963E-1,5.9937954E-2,6.877155E0,5.3086193E1,7.9325933E0,2.5331932E-1,7.6527065E-1,1.7167837E1,7.081158E-1,4.419833E-1,8.031314E0,9.267563E-1,6.4808166E-1,7.800735E0,7.130752E-2,9.025279E0,6.040985E1,5.3906405E-1,6.0811925E-1,-6.3999996E-2,1.8027855E1,6.858761E1,-5.80432E-2,-4.594458E-2,6.8417037E-1,-6.0072638E-2,5.0450066E1,4.217136E-1,4.7972E-1,3.351857E-1,8.97112E0,5.1141956E1,-2.5705308E-2,3.7586775E0,-1.403634E-2,3.0053395E-1,8.031314E0,3.7232557E-1,5.8618534E-1,9.634113E-1,4.48227E-1,2.606512E-1,1.8988478E-1,6.545906E1,-5.2557915E-2,2.6776198E-2,-1.05133075E-2,6.269371E-2,-3.9367404E-2,1.1870877E-3,5.738566E-2,-3.3499144E-2,2.689212E-2,2.5687102E-2,-3.5077225E-2,9.554434E-3,5.288577E-2,5.708055E-2,1.5428773E-3,-3.6160152E-2,-6.2586956E-2,-1.6048472E-2,2.7589375E-2,-4.130001E-2,5.7729594E-3,-6.2408455E-2,-9.812323E-3,3.179642E-2,-1.2256908E-2,5.3299744E-2,-7.92757E-3,-3.005807E-2,5.2233297E-2,-4.135574E-2,2.5305355E-2,-1.1841147E-2,-6.183015E-2,-7.3330114E-3,6.6300794E-2],"split_indices":[1,0,1,1,0,0,3,0,2,1,4,8,9,0,8,9,2,8,8,4,0,4,1,6,8,0,0,1,0,0,8,0,1,9,6,3,4,1,0,4,0,3,2,3,6,9,3,3,8,1,0,0,0,0,0,0,0,0,0,0,0,0,0,0,0,0,0,0,0,0,0,0,0,0,0,0,0,0,0,0,0,0,0,0,0],"split_type":[0,0,0,0,0,0,0,0,0,0,0,0,0,0,0,0,0,0,0,0,0,0,0,0,0,0,0,0,0,0,0,0,0,0,0,0,0,0,0,0,0,0,0,0,0,0,0,0,0,0,0,0,0,0,0,0,0,0,0,0,0,0,0,0,0,0,0,0,0,0,0,0,0,0,0,0,0,0,0,0,0,0,0,0,0],"sum_hessian":[5.274412E2,2.1840831E2,3.090329E2,3.6538853E1,1.8186946E2,1.5402019E2,1.5501271E2,4.314005E0,3.2224846E1,5.5110867E1,1.2675859E2,9.955087E1,5.4469322E1,1.461633E2,8.8494215E0,2.3670944E1,8.553902E0,4.776081E1,7.3500543E0,1.4116985E1,1.1264161E2,2.264336E1,7.690751E1,3.453034E1,1.9938982E1,1.3585078E2,1.0312509E1,6.0796633E0,2.7697582E0,1.2003952E0,2.2470549E1,3.652677E0,4.901225E0,4.388666E1,3.8741505E0,4.6536903E0,2.6963642E0,1.2943931E1,1.1730549E0,2.0979782E1,1.6635777E0,4.3208794E1,3.369872E1,8.648964E0,2.5881376E1,1.3524705E1,6.414276E0,3.176979E0,7.135529E0,3.846197E0,2.2334664E0,1.615323E1,6.317319E0,2.2021503E0,2.6990747E0,2.2108927E0,4.167577E1,1.7042165E0,2.169934E0,1.2191834E0,3.4345067E0,1.2268019E0,1.4695623E0,1.1746691E1,1.1972394E0,7.301324E0,1.3678458E1,3.677236E1,6.436433E0,2.9742168E1,3.9565494E0,3.933809E0,4.7151546E0,1.0068243E1,1.5813133E1,1.1063676E1,2.4610295E0,5.1818204E0,1.2324558E0,1.432645E0,1.7443341E0,1.0426031E0,6.092926E0,1.4168049E0,2.429392E0],"tree_param":{"num_deleted":"0","num_feature":"10","num_nodes":"85","size_leaf_vector":"1"}},{"base_weights":[4.716108E-3,1.0108471E0,-7.121837E-1,1.3476666E0,4.9467E-1,-2.3638964E-1,-1.189737E0,4.7660848E-1,6.955383E-2,2.688351E-1,1.0592272E0,-5.265685E-1,1.4012828E-1,-6.340312E-2,-6.552203E-1,-1.8385611E-2,6.896029E-1,-3.241522E-3,5.630075E-1,3.0555657E-1,1.2990183E0,-8.926926E-1,-3.7912524E-1,4.6585284E-2,7.849189E-1,-7.693659E-1,1.8278915E-1,9.669464E-1,-1.3806686E-2,1.6061082E-1,-5.981819E-1,-7.0157933E-1,7.1026105E-1,-1.9179066E-1,5.2538533E-2,4.498945E-1,1.3875221E0,-1.3905379E-1,-9.943554E-1,-1.0214391E0,-2.686887E-1,2.0196566E-1,-5.5457044E-1,-2.489772E-2,6.3454844E-2,-7.235624E-2,-1.0168769E0,5.383807E-2,-4.1846722E-2,5.9660494E-2,1.4996349E-2,-7.2328113E-3,2.7017215E-2,3.541452E-2,-5.1272728E-2,-5.4713834E-2,-3.3394159E-3,4.523007E-2,2.093041E-3,-3.618928E-2,2.0814847E-2,3.8940296E-2,-4.4659297E-3,7.212391E-2,1.7587515E-2,-4.3680787E-2,3.174486E-2,-5.280721E-2,-2.5889417E-3,-5.923276E-2,-3.1484657E-3,5.455101E-3,-2.2456087E-2,1.7433275E-2,-3.0259563E-2,-4.2925403E-2,3.6593147E-2,-3.578376E-2,4.6111878E-2,5.3125065E-2,-2.7216306E-2,-1.5246612E-2,-5.530203E-2],"categories":[],"categories_nodes":[],"categories_segments":[],"categories_sizes":[],"default_left":[0,0,0,0,0,0,0,0,0,0,0,0,0,0,0,0,0,0,0,0,0,0,0,0,0,0,0,0,0,0,0,0,0,0,0,0,0,0,0,0,0,0,0,0,0,0,0,0,0,0,0,0,0,0,0,0,0,0,0,0,0,0,0,0,0,0,0,0,0,0,0,0,0,0,0,0,0,0,0,0,0,0,0],"id":12,"left_children":[1,3,5,7,9,11,13,15,-1,17,19,21,23,-1,25,-1,27,29,31,33,35,37,39,41,43,45,47,49,-1,51,53,55,57,59,-1,61,63,65,67,69,71,73,75,77,-1,79,81,-1,-1,-1,-1,-1,-1,-1,-1,-1,-1,-1,-1,-1,-1,-1,-1,-1,-1,-1,-1,-1,-1,-1,-1,-1,-1,-1,-1,-1,-1,-1,-1,-1,-1,-1,-1],"loss_changes":[3.7692126E2,3.7133698E1,6.90526E1,4.289978E0,1.08624935E1,1.6910528E1,5.534607E0,1.6453615E0,0E0,5.107443E0,4.0563354E0,4.3709507E0,4.05659E0,0E0,2.1973362E0,0E0,2.0154557E0,3.423544E0,6.20697E0,2.8905306E0,7.5748825E-1,1.724123E0,4.260515E0,5.7470684E0,3.3780117E0,3.224204E0,3.9875288E0,4.4104958E-1,0E0,3.2719426E0,4.959029E0,8.493786E-1,3.5935135E0,1.9825028E0,0E0,6.398075E-1,4.1308212E-1,2.8581936E0,1.1832714E0,1.3368587E0,3.8600807E0,5.9740458E0,5.577246E0,3.3910418E0,0E0,3.8380377E0,5.5333805E-1,0E0,0E0,0E0,0E0,0E0,0E0,0E0,0E0,0E0,0E0,0E0,0E0,0E0,0E0,0E0,0E0,0E0,0E0,0E0,0E0,0E0,0E0,0E0,0E0,0E0,0E0,0E0,0E0,0E0,0E0,0E0,0E0,0E0,0E0,0E0,0E0],"parents":[2147483647,0,0,1,1,2,2,3,3,4,4,5,5,6,6,7,7,9,9,10,10,11,11,12,12,14,14,16,16,17,17,18,18,19,19,20,20,21,21,22,22,23,23,24,24,25,25,26,26,27,27,29,29,30,30,31,31,32,32,33,33,35,35,36,36,37,37,38,38,39,39,40,40,41,41,42,42,43,43,45,45,46,46],"right_children":[2,4,6,8,10,12,14,16,-1,18,20,22,24,-1,26,-1,28,30,32,34,36,38,40,42,44,46,48,50,-1,52,54,56,58,60,-1,62,64,66,68,70,72,74,76,78,-1,80,82,-1,-1,-1,-1,-1,-1,-1,-1,-1,-1,-1,-1,-1,-1,-1,-1,-1,-1,-1,-1,-1,-1,-1,-1,-1,-1,-1,-1,-1,-1,-1,-1,-1,-1,-1,-1],"split_conditions":[5.457225E1,4.6407505E1,6.452058E1,6.019797E0,2.5089725E1,2.8886378E-1,1.6660334E1,7.977307E-2,6.955383E-2,7.4521046E0,7.977307E-2,3.4175265E0,2.7006235E1,-6.340312E-2,2.2847675E1,-1.8385611E-2,2.593897E-1,4.319693E-1,4.932417E-1,9.219418E0,4.6895676E1,1.4559625E0,4.9571478E-1,4.5470795E-1,5.579347E1,1.7905754E1,4.466165E-1,4.6577975E-1,-1.3806686E-2,5.55986E0,4.5791698E0,3.974499E-1,5.3086193E1,5.0748265E-1,5.2538533E-2,1.8487395E-1,1.294408E1,3.7118006E0,9.728239E-1,2.1129793E-1,3.106545E-1,9.291334E0,9.3335495E0,1.6745237E-1,6.3454844E-2,1.0566686E-1,2.180747E0,5.383807E-2,-4.1846722E-2,5.9660494E-2,1.4996349E-2,-7.2328113E-3,2.7017215E-2,3.541452E-2,-5.1272728E-2,-5.4713834E-2,-3.3394159E-3,4.523007E-2,2.093041E-3,-3.618928E-2,2.0814847E-2,3.8940296E-2,-4.4659297E-3,7.212391E-2,1.7587515E-2,-4.3680787E-2,3.174486E-2,-5.280721E-2,-2.5889417E-3,-5.923276E-2,-3.1484657E-3,5.455101E-3,-2.2456087E-2,1.7433275E-2,-3.0259563E-2,-4.2925403E-2,3.6593147E-2,-3.578376E-2,4.6111878E-2,5.3125065E-2,-2.7216306E-2,-1.5246612E-2,-5.530203E-2],"split_indices":[1,1,1,4,0,3,0,7,0,4,7,4,0,0,0,0,7,5,9,2,1,4,9,5,1,0,5,5,0,2,2,5,1,5,0,7,2,0,9,7,5,2,2,7,0,7,2,0,0,0,0,0,0,0,0,0,0,0,0,0,0,0,0,0,0,0,0,0,0,0,0,0,0,0,0,0,0,0,0,0,0,0,0],"split_type":[0,0,0,0,0,0,0,0,0,0,0,0,0,0,0,0,0,0,0,0,0,0,0,0,0,0,0,0,0,0,0,0,0,0,0,0,0,0,0,0,0,0,0,0,0,0,0,0,0,0,0,0,0,0,0,0,0,0,0,0,0,0,0,0,0,0,0,0,0,0,0,0,0,0,0,0,0,0,0,0,0,0,0],"sum_hessian":[5.205637E2,2.1641988E2,3.0414386E2,1.2998817E2,8.643169E1,1.5310141E2,1.5104245E2,6.739215E0,1.2324897E2,6.2790386E1,2.3641302E1,8.623917E1,6.686225E1,1.305412E2,2.0501251E1,1.211273E0,5.527942E0,3.313406E1,2.9656328E1,6.2552185E0,1.7386084E1,2.3307816E1,6.293135E1,5.9327553E1,7.534696E0,1.8115627E1,2.385624E0,4.29363E0,1.234312E0,2.6551546E1,6.5825143E0,2.7004995E0,2.6955828E1,4.196896E0,2.0583227E0,2.2153084E0,1.5170775E1,3.051851E0,2.0255964E1,8.02247E0,5.490888E1,4.767028E1,1.1657272E1,3.1742127E0,4.360483E0,5.085843E0,1.3029784E1,1.2413882E0,1.1442357E0,2.6170256E0,1.6766045E0,1.506216E1,1.1489386E1,1.4601401E0,5.122374E0,1.2211983E0,1.4793012E0,2.0609999E1,6.3458295E0,2.1370227E0,2.059873E0,1.0999926E0,1.1153159E0,1.40335245E1,1.1372511E0,1.499701E0,1.5521501E0,1.8896742E1,1.3592241E0,6.6534758E0,1.368995E0,1.787582E1,3.7033062E1,4.081943E1,6.8508515E0,9.69851E0,1.9587618E0,1.9768263E0,1.1973865E0,1.1263397E0,3.9595032E0,1.9421598E0,1.1087625E1],"tree_param":{"num_deleted":"0","num_feature":"10","num_nodes":"83","size_leaf_vector":"1"}},{"base_weights":[-1.0417884E-3,-7.134268E-1,9.027365E-1,-1.1677268E0,-4.5540863E-1,3.7862355E-1,1.258609E0,-6.364844E-2,-9.7447836E-1,-6.9728655E-1,-2.566337E-1,-5.0763535E-1,4.2776957E-1,5.9812456E-1,1.3274502E0,4.824416E-3,-1.0099494E0,-1.5882665E-1,-7.8683937E-1,-3.4420714E-1,1.1946699E-1,2.7173114E-1,-6.259244E-2,4.7289667E-1,-3.0778447E-1,8.931389E-2,8.8620985E-1,1.34707E0,6.143085E-1,-1.0638326E0,-1.2469507E-1,6.371331E-1,-5.600681E-1,-3.7004504E-1,-9.069644E-1,-5.9826636E-1,-2.0168798E-1,5.9841186E-2,-1.6161793E-1,3.200941E-2,-1.1069808E-2,3.0001742E-1,7.2823656E-1,-4.7346957E-2,2.6028684E-1,6.709828E-1,-4.855254E-2,6.159665E-3,1.0879135E0,1.7984916E-2,6.7669496E-2,-1.6070029E-2,5.2138478E-2,-1.133485E-2,-5.503435E-2,3.371795E-2,-3.87564E-2,5.541299E-2,-1.9611241E-2,-2.1362917E-3,-4.829045E-2,3.0861325E-3,-4.1359674E-2,-4.8990678E-2,-6.4256336E-3,-4.1651777E-3,-4.8985943E-2,4.0068876E-2,-1.27618825E-2,-4.125187E-2,1.304243E-2,3.654811E-2,8.829724E-3,2.3355256E-3,4.3368094E-2,3.2380704E-2,-1.6073687E-2,5.5636235E-2,-1.0318685E-2,6.55996E-2,4.533784E-3],"categories":[],"categories_nodes":[],"categories_segments":[],"categories_sizes":[],"default_left":[0,0,0,0,0,0,0,0,0,0,0,0,0,0,0,0,0,0,0,0,0,0,0,0,0,0,0,0,0,0,0,0,0,0,0,0,0,0,0,0,0,0,0,0,0,0,0,0,0,0,0,0,0,0,0,0,0,0,0,0,0,0,0,0,0,0,0,0,0,0,0,0,0,0,0,0,0,0,0,0,0],"id":13,"left_children":[1,3,5,7,9,11,13,-1,15,17,19,21,23,25,27,-1,29,31,33,35,37,39,-1,41,43,45,47,49,51,53,55,57,59,61,63,65,67,-1,69,-1,-1,71,73,-1,75,77,-1,-1,79,-1,-1,-1,-1,-1,-1,-1,-1,-1,-1,-1,-1,-1,-1,-1,-1,-1,-1,-1,-1,-1,-1,-1,-1,-1,-1,-1,-1,-1,-1,-1,-1],"loss_changes":[3.310711E2,3.3174667E1,4.179953E1,8.648834E-1,8.717392E0,4.2719297E0,5.3245544E0,0E0,1.6459923E0,3.871807E0,3.438498E0,3.4423268E0,3.0912952E0,2.0494785E0,8.661194E-1,0E0,1.7536125E0,4.5317063E0,3.2098236E0,2.9181356E0,6.3178487E0,7.657084E-1,0E0,3.489933E0,2.3289979E0,4.575441E0,1.2757306E0,2.4307251E-1,2.3715365E0,8.9639664E-1,2.2906446E0,2.7862139E0,1.8947463E0,3.5116053E0,2.9523315E0,5.743021E0,3.1734967E0,0E0,4.9575233E0,0E0,0E0,2.6257548E0,3.108881E0,0E0,1.0691984E0,2.0510507E0,0E0,0E0,1.471426E0,0E0,0E0,0E0,0E0,0E0,0E0,0E0,0E0,0E0,0E0,0E0,0E0,0E0,0E0,0E0,0E0,0E0,0E0,0E0,0E0,0E0,0E0,0E0,0E0,0E0,0E0,0E0,0E0,0E0,0E0,0E0,0E0],"parents":[2147483647,0,0,1,1,2,2,3,3,4,4,5,5,6,6,8,8,9,9,10,10,11,11,12,12,13,13,14,14,16,16,17,17,18,18,19,19,20,20,21,21,23,23,24,24,25,25,26,26,27,27,28,28,29,29,30,30,31,31,32,32,33,33,34,34,35,35,36,36,38,38,41,41,42,42,44,44,45,45,48,48],"right_children":[2,4,6,8,10,12,14,-1,16,18,20,22,24,26,28,-1,30,32,34,36,38,40,-1,42,44,46,48,50,52,54,56,58,60,62,64,66,68,-1,70,-1,-1,72,74,-1,76,78,-1,-1,80,-1,-1,-1,-1,-1,-1,-1,-1,-1,-1,-1,-1,-1,-1,-1,-1,-1,-1,-1,-1,-1,-1,-1,-1,-1,-1,-1,-1,-1,-1,-1,-1],"split_conditions":[1.9673792E1,1.0045156E1,2.5642588E1,1.2688814E-1,1.4222364E1,4.2462415E-1,7.9325933E0,-6.364844E-2,1.4115406E0,6.647477E-2,9.0107125E-1,7.68479E0,1.2841671E1,1.1246799E-1,9.4713014E-1,4.824416E-3,9.302961E-1,2.9212134E0,1.6783227E-1,2.616497E-1,3.106545E-1,3.62306E-1,-6.259244E-2,9.684166E0,1.3134135E1,4.9682847E-1,5.1492673E-1,1.6035575E0,4.9015546E-1,2.0226292E-1,6.315309E-1,5.8165545E0,4.1833726E-1,3.1900412E-1,7.1540637E0,1.405651E-1,2.6552895E-1,5.9841186E-2,5.3168135E0,3.200941E-2,-1.1069808E-2,4.3908987E0,5.338726E-1,-4.7346957E-2,7.010837E-1,8.567533E0,-4.855254E-2,6.159665E-3,7.6646776E0,1.7984916E-2,6.7669496E-2,-1.6070029E-2,5.2138478E-2,-1.133485E-2,-5.503435E-2,3.371795E-2,-3.87564E-2,5.541299E-2,-1.9611241E-2,-2.1362917E-3,-4.829045E-2,3.0861325E-3,-4.1359674E-2,-4.8990678E-2,-6.4256336E-3,-4.1651777E-3,-4.8985943E-2,4.0068876E-2,-1.27618825E-2,-4.125187E-2,1.304243E-2,3.654811E-2,8.829724E-3,2.3355256E-3,4.3368094E-2,3.2380704E-2,-1.6073687E-2,5.5636235E-2,-1.0318685E-2,6.55996E-2,4.533784E-3],"split_indices":[0,0,0,3,0,9,4,0,4,7,9,2,4,7,8,0,8,2,3,3,5,3,0,4,4,3,9,2,3,5,9,4,8,5,4,7,3,0,4,0,0,2,9,0,9,2,0,0,4,0,0,0,0,0,0,0,0,0,0,0,0,0,0,0,0,0,0,0,0,0,0,0,0,0,0,0,0,0,0,0,0],"split_type":[0,0,0,0,0,0,0,0,0,0,0,0,0,0,0,0,0,0,0,0,0,0,0,0,0,0,0,0,0,0,0,0,0,0,0,0,0,0,0,0,0,0,0,0,0,0,0,0,0,0,0,0,0,0,0,0,0,0,0,0,0,0,0,0,0,0,0,0,0,0,0,0,0,0,0,0,0,0,0,0,0],"sum_hessian":[5.122145E2,2.8655438E2,2.2566011E2,1.0251955E2,1.8403484E2,9.209326E1,1.3356685E2,6.2755867E1,3.9763683E1,8.188532E1,1.02149506E2,4.348413E0,8.774484E1,1.3521877E1,1.20044975E2,1.2196293E0,3.8544056E1,1.2072117E1,6.981321E1,8.292547E1,1.922404E1,2.434155E0,1.9142581E0,8.300922E1,4.7356253E0,5.3618712E0,8.1600065E0,1.15965614E2,4.079358E0,3.614243E1,2.4016254E0,3.8489282E0,8.223188E0,1.653225E1,5.3280956E1,2.8651894E1,5.427357E1,3.3036745E0,1.5920365E1,1.2225006E0,1.2116547E0,5.0793903E1,3.2215317E1,1.9145588E0,2.8210664E0,3.6996324E0,1.6622387E0,2.042872E0,6.1171346E0,1.1058888E0,1.14859726E2,1.3597325E0,2.7196255E0,1.8256036E0,3.4316826E1,1.0611825E0,1.3404429E0,2.5878458E0,1.2610823E0,4.100336E0,4.122853E0,8.946983E0,7.5852666E0,4.8484962E1,4.795994E0,1.271073E1,1.5941163E1,2.0428474E0,5.2230724E1,5.823126E0,1.00972395E1,1.0212703E1,4.05812E1,5.6879234E0,2.6527393E1,1.6255822E0,1.1954843E0,2.2822623E0,1.4173702E0,4.7370887E0,1.3800459E0],"tree_param":{"num_deleted":"0","num_feature":"10","num_nodes":"81","size_leaf_vector":"1"}},{"base_weights":[2.2286898E-2,1.0047786E0,-6.7761475E-1,1.2425125E0,4.9107727E-1,-1.9377129E-1,-1.0801128E0,1.4194961E-1,1.2724977E0,1.1739442E-1,7.4369514E-1,-3.3280838E-1,7.044182E-1,-1.1875842E0,-5.752622E-1,5.774226E-1,-3.2180354E-2,9.351734E-1,1.3214468E0,7.595723E-1,-4.817448E-2,-2.9486142E-2,8.054342E-1,8.5881364E-1,-3.726938E-1,1.1506076E-1,9.218285E-1,-1.217137E0,-6.6681683E-1,1.8715657E-3,-1.0025262E0,-9.912193E-3,5.2403398E-2,1.1183133E0,-3.8298938E-1,1.91325E-2,6.635438E-2,5.982676E-2,-1.6598286E-2,-1.796188E-1,4.2426016E-2,2.3045465E-2,-3.0796206E-2,2.450859E-1,9.481553E-1,-1.9205162E-2,7.352962E-2,-4.9788254E-1,-4.6106227E-2,4.3637965E-2,-4.526446E-1,3.3896998E-1,1.244569E0,-6.188366E-1,-6.221637E-2,2.3303273E-1,-6.123336E-2,-3.4034824E-1,8.74171E-1,-1.14752E0,-2.6624694E-1,6.157291E-2,3.9993683E-3,1.7537786E-2,-4.6133302E-2,3.5157748E-3,-3.398037E-2,3.6718648E-2,-3.0607063E-2,5.6060273E-2,1.757934E-2,-3.1067064E-2,-1.6815255E-3,3.7650538E-3,-6.0029935E-2,-5.5493634E-2,1.6476814E-2,-1.7732019E-2,4.957963E-2,1.8996848E-2,6.874931E-2,3.548317E-2,-4.768754E-2,-3.7530076E-2,4.1702922E-2,1.7663734E-2,-4.6804883E-2,6.221133E-2,5.356387E-3,-1.1980741E-2,-5.9968412E-2,2.1913705E-2,-4.498596E-2],"categories":[],"categories_nodes":[],"categories_segments":[],"categories_sizes":[],"default_left":[0,0,0,0,0,0,0,0,0,0,0,0,0,0,0,0,0,0,0,0,0,0,0,0,0,0,0,0,0,0,0,0,0,0,0,0,0,0,0,0,0,0,0,0,0,0,0,0,0,0,0,0,0,0,0,0,0,0,0,0,0,0,0,0,0,0,0,0,0,0,0,0,0,0,0,0,0,0,0,0,0,0,0,0,0,0,0,0,0,0,0,0,0],"id":14,"left_children":[1,3,5,7,9,11,13,15,17,19,21,23,25,27,29,31,-1,33,35,37,39,41,43,45,47,49,51,53,55,57,59,-1,-1,61,63,-1,-1,-1,-1,65,-1,-1,-1,67,69,-1,-1,71,73,-1,75,77,79,81,-1,83,-1,85,87,89,91,-1,-1,-1,-1,-1,-1,-1,-1,-1,-1,-1,-1,-1,-1,-1,-1,-1,-1,-1,-1,-1,-1,-1,-1,-1,-1,-1,-1,-1,-1,-1,-1],"loss_changes":[3.4777136E2,2.5083145E1,5.731163E1,4.544159E0,6.352045E0,1.7136763E1,8.053131E0,2.055695E0,1.0634613E0,3.0882792E0,1.9576416E0,5.922861E0,2.2597284E0,1.2170715E0,7.4489174E0,1.5564158E0,0E0,5.514036E0,1.2332153E-1,3.2316885E0,2.9527516E0,1.4228529E0,2.7707996E0,3.698098E0,4.669119E0,3.026822E0,2.088562E0,1.239502E0,4.9489856E0,4.4305463E0,1.5472393E0,0E0,0E0,2.1045246E0,1.6362395E0,0E0,0E0,0E0,0E0,2.740344E0,0E0,0E0,0E0,4.21249E0,2.6595936E0,0E0,0E0,4.7282696E0,4.7022347E0,0E0,2.5022957E0,3.126676E0,4.0394306E-1,3.951164E0,0E0,3.2246141E0,0E0,4.7372127E0,1.0536015E0,3.809471E-1,2.2498004E0,0E0,0E0,0E0,0E0,0E0,0E0,0E0,0E0,0E0,0E0,0E0,0E0,0E0,0E0,0E0,0E0,0E0,0E0,0E0,0E0,0E0,0E0,0E0,0E0,0E0,0E0,0E0,0E0,0E0,0E0,0E0,0E0],"parents":[2147483647,0,0,1,1,2,2,3,3,4,4,5,5,6,6,7,7,8,8,9,9,10,10,11,11,12,12,13,13,14,14,15,15,17,17,18,18,19,19,20,20,21,21,22,22,23,23,24,24,25,25,26,26,27,27,28,28,29,29,30,30,33,33,34,34,39,39,43,43,44,44,47,47,48,48,50,50,51,51,52,52,53,53,55,55,57,57,58,58,59,59,60,60],"right_children":[2,4,6,8,10,12,14,16,18,20,22,24,26,28,30,32,-1,34,36,38,40,42,44,46,48,50,52,54,56,58,60,-1,-1,62,64,-1,-1,-1,-1,66,-1,-1,-1,68,70,-1,-1,72,74,-1,76,78,80,82,-1,84,-1,86,88,90,92,-1,-1,-1,-1,-1,-1,-1,-1,-1,-1,-1,-1,-1,-1,-1,-1,-1,-1,-1,-1,-1,-1,-1,-1,-1,-1,-1,-1,-1,-1,-1,-1],"split_conditions":[5.457225E1,4.8757305E1,6.3456352E1,4.6408873E0,1.9119022E1,2.3928974E1,6.5183115E0,7.3277316E0,2.342646E1,1.5138913E0,4.9436374E0,4.3837383E-1,2.8833345E-1,1.706544E1,6.663685E1,3.7764087E0,-3.2180354E-2,4.759572E-1,1.5355031E0,1.4961394E1,9.24427E-1,4.308484E-1,8.293797E-2,4.6069856E0,1.8529549E1,6.651666E0,5.5902195E1,2.7686171E-2,1.8027855E1,2.2847675E1,2.052644E1,-9.912193E-3,5.2403398E-2,1.0653703E1,1.5081356E-1,1.91325E-2,6.635438E-2,5.982676E-2,-1.6598286E-2,5.6750655E-1,4.2426016E-2,2.3045465E-2,-3.0796206E-2,4.5379873E-2,5.3086193E1,-1.9205162E-2,7.352962E-2,2.1354881E-1,9.267563E-1,4.3637965E-2,2.6603851E1,1.5917899E-1,4.61385E0,6.1600196E-1,-6.221637E-2,6.750038E-1,-6.123336E-2,7.9934373E0,4.4222024E-1,6.711792E0,6.898011E1,6.157291E-2,3.9993683E-3,1.7537786E-2,-4.6133302E-2,3.5157748E-3,-3.398037E-2,3.6718648E-2,-3.0607063E-2,5.6060273E-2,1.757934E-2,-3.1067064E-2,-1.6815255E-3,3.7650538E-3,-6.0029935E-2,-5.5493634E-2,1.6476814E-2,-1.7732019E-2,4.957963E-2,1.8996848E-2,6.874931E-2,3.548317E-2,-4.768754E-2,-3.7530076E-2,4.1702922E-2,1.7663734E-2,-4.6804883E-2,6.221133E-2,5.356387E-3,-1.1980741E-2,-5.9968412E-2,2.1913705E-2,-4.498596E-2],"split_indices":[1,1,1,4,0,0,4,2,0,2,4,6,8,0,1,2,0,5,2,0,8,5,7,4,0,2,1,7,0,0,0,0,0,2,7,0,0,0,0,8,0,0,0,7,1,0,0,7,8,0,0,7,2,6,0,6,0,4,5,4,1,0,0,0,0,0,0,0,0,0,0,0,0,0,0,0,0,0,0,0,0,0,0,0,0,0,0,0,0,0,0,0,0],"split_type":[0,0,0,0,0,0,0,0,0,0,0,0,0,0,0,0,0,0,0,0,0,0,0,0,0,0,0,0,0,0,0,0,0,0,0,0,0,0,0,0,0,0,0,0,0,0,0,0,0,0,0,0,0,0,0,0,0,0,0,0,0,0,0,0,0,0,0,0,0,0,0,0,0,0,0,0,0,0,0,0,0,0,0,0,0,0,0,0,0,0,0,0,0],"sum_hessian":[5.0375052E2,2.0938678E2,2.9436374E2,1.4217256E2,6.721421E1,1.3434676E2,1.6001698E2,3.9228797E0,1.3824968E2,2.7701586E1,3.951263E1,1.16883064E2,1.7463688E1,1.308167E2,2.9200281E1,2.6942658E0,1.2286139E0,2.0066938E1,1.1818275E2,4.9427834E0,2.2758802E1,2.9604354E0,3.6552193E1,3.1205676E0,1.137625E2,5.118273E0,1.2345415E1,1.2252632E2,8.290379E0,1.2845133E1,1.6355148E1,1.236003E0,1.4582628E0,1.7752142E1,2.314795E0,1.1169987E0,1.1706575E2,3.4610636E0,1.48172E0,2.0546612E1,2.2121904E0,1.7288098E0,1.2316254E0,7.9715796E0,2.8580614E1,1.1520879E0,1.9684796E0,8.185937E1,3.190313E1,1.9621317E0,3.1561413E0,5.1303887E0,7.2150264E0,6.359128E0,1.1616719E2,3.395492E0,4.894887E0,9.663703E0,3.1814296E0,1.3197632E1,3.1575162E0,1.5840069E1,1.9120733E0,1.129368E0,1.1854272E0,1.4271793E1,6.2748184E0,5.1661606E0,2.805419E0,2.1472525E1,7.108088E0,6.439611E1,1.7463259E1,2.9713238E1,2.1898909E0,1.4874032E0,1.668738E0,2.708439E0,2.4219496E0,1.4585391E0,5.7564874E0,1.0550667E0,5.3040614E0,1.1934434E0,2.2020485E0,4.6531324E0,5.010571E0,1.7264206E0,1.4550089E0,1.0166551E0,1.2180976E1,1.6408132E0,1.5167031E0],"tree_param":{"num_deleted":"0","num_feature":"10","num_nodes":"93","size_leaf_vector":"1"}},{"base_weights":[1.1129159E-2,9.4735837E-1,-6.489016E-1,5.00055E-1,1.2306511E0,-6.85341E-2,-9.8333156E-1,8.374827E-1,2.4604708E-1,7.37505E-1,1.2885624E0,-5.77424E-1,1.4183502E-1,-1.0583816E0,7.8565195E-2,9.668687E-1,2.1414566E-1,1.5195379E-1,6.416781E-2,-2.0828795E-1,1.0614413E0,6.543722E-2,7.511666E-1,-1.1430948E0,-3.6168215E-1,1.0566885E0,2.4923006E-2,-7.0453316E-1,-1.1500902E0,-2.8420585E-1,4.6379885E-1,4.2433345E-1,1.1087683E0,4.186659E-2,-2.3453677E-1,2.4033238E-1,-9.1142637E-1,4.3041453E-2,-9.424917E-1,6.6329435E-2,-1.0241356E-2,-1.3805034E-2,5.6128334E-2,-6.1645567E-2,-1.3830352E-2,6.549448E-2,-7.237371E-1,1.2752911E0,-7.880691E-3,-3.0428645E-1,2.7281114E-1,-3.28511E-1,-9.1117203E-1,-1.1926205E0,-7.3239774E-1,1.5187839E-1,-4.3225873E-2,5.423522E-2,4.8828997E-2,5.488622E-2,-1.2047965E-2,6.1208498E-2,2.5731442E-2,-4.415692E-2,1.0134618E-2,-1.841733E-2,2.0802855E-2,-5.976547E-2,-9.590058E-3,-7.6692454E-3,-6.33903E-2,-3.1911965E-2,2.6868263E-2,-4.997308E-2,2.5279084E-2,8.608789E-2,3.64846E-2,-4.403236E-2,-6.152248E-3,-5.02022E-2,1.7962066E-2,-3.234501E-2,3.1738456E-2,-4.943363E-2,4.184925E-3,-5.9964415E-2,-1.2950172E-2,1.1870699E-2,-5.4351646E-2,-2.2776319E-2,3.316251E-2,3.5393786E-2,-2.6555315E-2],"categories":[],"categories_nodes":[],"categories_segments":[],"categories_sizes":[],"default_left":[0,0,0,0,0,0,0,0,0,0,0,0,0,0,0,0,0,0,0,0,0,0,0,0,0,0,0,0,0,0,0,0,0,0,0,0,0,0,0,0,0,0,0,0,0,0,0,0,0,0,0,0,0,0,0,0,0,0,0,0,0,0,0,0,0,0,0,0,0,0,0,0,0,0,0,0,0,0,0,0,0,0,0,0,0,0,0,0,0,0,0,0,0],"id":15,"left_children":[1,3,5,7,9,11,13,15,17,19,21,23,25,27,29,31,33,35,-1,37,39,-1,41,43,45,47,49,51,53,55,57,59,61,-1,63,65,67,-1,69,-1,-1,-1,-1,-1,-1,71,73,75,-1,77,79,81,83,85,87,89,-1,91,-1,-1,-1,-1,-1,-1,-1,-1,-1,-1,-1,-1,-1,-1,-1,-1,-1,-1,-1,-1,-1,-1,-1,-1,-1,-1,-1,-1,-1,-1,-1,-1,-1,-1,-1],"loss_changes":[3.089252E2,2.5578186E1,5.6845245E1,6.8081036E0,2.6444244E0,1.1672865E1,1.4902756E1,2.594038E0,4.500293E0,4.990243E0,2.2409058E-1,3.4752655E0,8.25291E0,4.8279877E0,1.9773302E0,1.7217922E0,2.2248116E0,4.470638E0,0E0,4.5847926E0,4.2197914E0,0E0,2.7425516E0,3.0761337E-1,3.8412137E0,2.5228987E0,5.76776E0,2.6799927E0,1.5496979E0,2.009339E0,1.371894E0,3.6352015E0,8.751869E-1,0E0,1.5966363E0,4.705391E0,5.225308E-1,0E0,6.5970635E-1,0E0,0E0,0E0,0E0,0E0,0E0,4.384244E0,5.0336895E0,5.76087E-1,0E0,3.0666816E0,4.8043246E0,5.060858E0,1.9472027E0,4.5013428E-1,5.4847145E0,1.8824152E0,0E0,2.2241879E0,0E0,0E0,0E0,0E0,0E0,0E0,0E0,0E0,0E0,0E0,0E0,0E0,0E0,0E0,0E0,0E0,0E0,0E0,0E0,0E0,0E0,0E0,0E0,0E0,0E0,0E0,0E0,0E0,0E0,0E0,0E0,0E0,0E0,0E0,0E0],"parents":[2147483647,0,0,1,1,2,2,3,3,4,4,5,5,6,6,7,7,8,8,9,9,10,10,11,11,12,12,13,13,14,14,15,15,16,16,17,17,19,19,20,20,22,22,23,23,24,24,25,25,26,26,27,27,28,28,29,29,30,30,31,31,32,32,34,34,35,35,36,36,38,38,45,45,46,46,47,47,49,49,50,50,51,51,52,52,53,53,54,54,55,55,57,57],"right_children":[2,4,6,8,10,12,14,16,18,20,22,24,26,28,30,32,34,36,-1,38,40,-1,42,44,46,48,50,52,54,56,58,60,62,-1,64,66,68,-1,70,-1,-1,-1,-1,-1,-1,72,74,76,-1,78,80,82,84,86,88,90,-1,92,-1,-1,-1,-1,-1,-1,-1,-1,-1,-1,-1,-1,-1,-1,-1,-1,-1,-1,-1,-1,-1,-1,-1,-1,-1,-1,-1,-1,-1,-1,-1,-1,-1,-1,-1],"split_conditions":[5.4699745E1,2.4843754E1,6.126191E1,4.9710724E1,7.9325933E0,2.3630671E-1,3.6526808E-1,2.2150816E-1,1.03449335E1,6.123631E0,9.4713014E-1,8.75744E0,3.0838147E-1,6.452058E1,1.4852074E-1,5.976294E0,4.345221E0,9.37727E0,6.416781E-2,4.345221E0,5.1141956E1,6.543722E-2,9.634662E-1,2.1354881E-1,3.2781973E-1,8.335836E0,5.7181797E1,4.1145873E-1,1.6660334E1,1.0410252E-1,4.4499934E-1,4.4912133E0,9.886779E0,4.186659E-2,2.2549422E-1,2.401671E-1,1.3187778E-1,4.3041453E-2,4.009199E1,6.6329435E-2,-1.0241356E-2,-1.3805034E-2,5.6128334E-2,-6.1645567E-2,-1.3830352E-2,1.1222639E1,6.245849E-1,1.3717339E1,-7.880691E-3,8.14244E-2,1.2881961E1,1.5540332E1,1.0533405E1,4.356562E-1,3.385269E-1,6.5215096E-2,-4.3225873E-2,5.4914536E0,4.8828997E-2,5.488622E-2,-1.2047965E-2,6.1208498E-2,2.5731442E-2,-4.415692E-2,1.0134618E-2,-1.841733E-2,2.0802855E-2,-5.976547E-2,-9.590058E-3,-7.6692454E-3,-6.33903E-2,-3.1911965E-2,2.6868263E-2,-4.997308E-2,2.5279084E-2,8.608789E-2,3.64846E-2,-4.403236E-2,-6.152248E-3,-5.02022E-2,1.7962066E-2,-3.234501E-2,3.1738456E-2,-4.943363E-2,4.184925E-3,-5.9964415E-2,-1.2950172E-2,1.1870699E-2,-5.4351646E-2,-2.2776319E-2,3.316251E-2,3.5393786E-2,-2.6555315E-2],"split_indices":[1,0,1,1,4,3,3,7,2,2,8,0,5,1,7,4,2,2,0,2,1,0,8,7,5,4,1,8,0,7,3,2,2,0,8,3,7,0,1,0,0,0,0,0,0,0,8,0,0,7,0,0,4,5,8,7,0,2,0,0,0,0,0,0,0,0,0,0,0,0,0,0,0,0,0,0,0,0,0,0,0,0,0,0,0,0,0,0,0,0,0,0,0],"split_type":[0,0,0,0,0,0,0,0,0,0,0,0,0,0,0,0,0,0,0,0,0,0,0,0,0,0,0,0,0,0,0,0,0,0,0,0,0,0,0,0,0,0,0,0,0,0,0,0,0,0,0,0,0,0,0,0,0,0,0,0,0,0,0,0,0,0,0,0,0,0,0,0,0,0,0,0,0,0,0,0,0,0,0,0,0,0,0,0,0,0,0,0,0],"sum_hessian":[4.9793265E2,2.0570805E2,2.922246E2,8.083667E1,1.2487138E2,1.0727143E2,1.8495317E2,3.373094E1,4.710573E1,1.4566317E1,1.1030506E2,3.0864462E1,7.640697E1,1.7274748E2,1.2205687E1,2.7476524E1,6.2544165E0,4.423931E1,2.8664162E0,3.8072736E0,1.0759043E1,1.04929085E2,5.37598E0,7.3346677E0,2.3529795E1,7.7470274E0,6.865994E1,3.7343548E1,1.3540393E2,6.421175E0,5.7845116E0,6.523837E0,2.0952688E1,2.255498E0,3.9989183E0,4.1559273E1,2.6800404E0,1.479875E0,2.3273988E0,8.856848E0,1.902195E0,1.495666E0,3.880314E0,6.262626E0,1.0720413E0,1.1169902E1,1.2359892E1,6.522586E0,1.2244414E0,2.9394659E1,3.926528E1,1.4162227E1,2.318132E1,1.2120709E2,1.4196836E1,4.0876946E0,2.3334804E0,3.8306766E0,1.9538348E0,2.919159E0,3.6046782E0,1.6656946E1,4.295742E0,1.199574E0,2.7993443E0,9.064681E0,3.249459E1,1.4478612E0,1.2321793E0,1.108948E0,1.2184508E0,4.341921E0,6.827981E0,1.024828E1,2.1116118E0,2.4016128E0,4.120973E0,6.108913E0,2.3285746E1,1.816269E0,3.7449013E1,1.089093E1,3.2712967E0,2.151178E1,1.6695406E0,1.2006505E2,1.1420457E0,3.8898644E0,1.03069725E1,1.918325E0,2.1693695E0,1.7108561E0,2.1198206E0],"tree_param":{"num_deleted":"0","num_feature":"10","num_nodes":"93","size_leaf_vector":"1"}},{"base_weights":[3.677298E-2,9.373491E-1,-6.020057E-1,1.1863543E0,4.0052003E-1,-1.9013691E-1,-1.0493057E0,5.005856E-1,1.2492707E0,5.001586E-2,6.1428446E-1,-5.1216716E-1,6.1206106E-2,-1.1423659E0,-5.411788E-1,-2.1959226E-1,7.5377166E-1,1.2553465E0,1.3717534E-2,6.275589E-1,-3.4212327E-1,-3.535765E-1,7.6458615E-1,-2.979178E-1,-7.226888E-1,-4.108499E-1,1.5033983E-1,-1.1750231E0,-7.654594E-1,-1.1311607E-1,-1.0379736E0,1.26469685E-2,-3.751608E-2,1.0917237E0,1.2709673E-1,1.6747316E-2,1.2617164E0,-2.2775777E-2,9.161941E-1,-9.315448E-1,2.5137943E-1,-9.8804504E-1,3.3536475E-2,-1.42509015E-2,8.2081E-1,-4.2074314E-1,6.163582E-1,-2.9859993E-1,-8.481109E-1,1.5947616E-1,-8.715703E-1,4.739036E-1,-6.822838E-2,-1.1241912E-2,-1.1828921E0,1.774677E-1,-1.030447E0,4.4169438E-1,-6.577341E-1,-6.3568503E-3,-5.9513062E-2,6.370666E-2,1.3098109E-2,-2.0742623E-2,4.2226154E-2,6.3362174E-2,2.0060575E-2,6.716926E-2,1.0309749E-3,-6.640277E-2,-1.6572664E-2,-5.431549E-3,2.9662361E-2,-6.020558E-2,-1.2288469E-2,5.0745893E-2,2.5349393E-2,-4.152904E-2,-5.42127E-3,-2.6060972E-2,6.054157E-2,4.0182754E-2,-3.0030206E-2,-5.1248994E-2,-2.3004975E-2,-2.1645105E-2,5.5250157E-2,-5.1250573E-2,-4.6231304E-3,1.623048E-2,7.3644586E-2,-3.0801887E-2,1.3088308E-2,-5.998337E-2,-2.7234277E-2,3.2956015E-2,-1.7224321E-2,-3.6999807E-3,-5.9542786E-2,-4.2154018E-2,4.943763E-2,-5.613448E-2,2.1064987E-2],"categories":[],"categories_nodes":[],"categories_segments":[],"categories_sizes":[],"default_left":[0,0,0,0,0,0,0,0,0,0,0,0,0,0,0,0,0,0,0,0,0,0,0,0,0,0,0,0,0,0,0,0,0,0,0,0,0,0,0,0,0,0,0,0,0,0,0,0,0,0,0,0,0,0,0,0,0,0,0,0,0,0,0,0,0,0,0,0,0,0,0,0,0,0,0,0,0,0,0,0,0,0,0,0,0,0,0,0,0,0,0,0,0,0,0,0,0,0,0,0,0,0,0],"id":16,"left_children":[1,3,5,7,9,11,13,15,17,19,21,23,25,27,29,31,33,35,-1,37,39,41,43,45,47,49,51,53,55,57,59,-1,-1,61,63,-1,65,-1,67,69,71,73,-1,-1,75,77,79,81,83,85,87,89,91,-1,93,95,97,99,101,-1,-1,-1,-1,-1,-1,-1,-1,-1,-1,-1,-1,-1,-1,-1,-1,-1,-1,-1,-1,-1,-1,-1,-1,-1,-1,-1,-1,-1,-1,-1,-1,-1,-1,-1,-1,-1,-1,-1,-1,-1,-1,-1,-1],"loss_changes":[2.7732483E2,2.6263489E1,5.1765526E1,5.248413E0,4.831377E0,1.2016247E1,5.7652893E0,2.55581E0,3.9027405E-1,6.0288706E0,6.121251E0,2.717144E0,3.5985267E0,4.9391174E-1,4.7305546E0,1.2391384E0,1.9631772E0,2.9840088E-1,0E0,3.7731366E0,5.809497E0,4.6206417E0,2.3070812E0,4.068823E0,1.4537029E0,3.7174144E0,5.084461E0,4.9897766E-1,3.1550288E0,4.329738E0,1.2952757E0,0E0,0E0,6.221814E-1,2.1423147E0,0E0,7.072449E-2,0E0,3.3420558E0,1.51303E0,1.1387477E0,3.720641E-1,0E0,0E0,1.5323162E0,3.8139696E0,3.6224139E0,3.4347224E0,1.1907902E0,4.360329E0,8.2428026E-1,3.8361397E0,8.02687E0,0E0,4.3032837E-1,1.0975525E0,1.3590364E0,5.9082923E0,4.0589743E0,0E0,0E0,0E0,0E0,0E0,0E0,0E0,0E0,0E0,0E0,0E0,0E0,0E0,0E0,0E0,0E0,0E0,0E0,0E0,0E0,0E0,0E0,0E0,0E0,0E0,0E0,0E0,0E0,0E0,0E0,0E0,0E0,0E0,0E0,0E0,0E0,0E0,0E0,0E0,0E0,0E0,0E0,0E0,0E0],"parents":[2147483647,0,0,1,1,2,2,3,3,4,4,5,5,6,6,7,7,8,8,9,9,10,10,11,11,12,12,13,13,14,14,15,15,16,16,17,17,19,19,20,20,21,21,22,22,23,23,24,24,25,25,26,26,27,27,28,28,29,29,30,30,33,33,34,34,36,36,38,38,39,39,40,40,41,41,44,44,45,45,46,46,47,47,48,48,49,49,50,50,51,51,52,52,54,54,55,55,56,56,57,57,58,58],"right_children":[2,4,6,8,10,12,14,16,18,20,22,24,26,28,30,32,34,36,-1,38,40,42,44,46,48,50,52,54,56,58,60,-1,-1,62,64,-1,66,-1,68,70,72,74,-1,-1,76,78,80,82,84,86,88,90,92,-1,94,96,98,100,102,-1,-1,-1,-1,-1,-1,-1,-1,-1,-1,-1,-1,-1,-1,-1,-1,-1,-1,-1,-1,-1,-1,-1,-1,-1,-1,-1,-1,-1,-1,-1,-1,-1,-1,-1,-1,-1,-1,-1,-1,-1,-1,-1,-1],"split_conditions":[5.457225E1,4.8757305E1,6.452058E1,6.3773813E0,6.4072485E0,5.8899965E0,6.581951E0,3.726341E-1,9.868216E-1,3.58598E-1,3.3929405E-1,5.976655E1,2.5561707E0,3.8535473E-1,6.898011E1,3.4365115E-1,4.308484E-1,4.0322807E-1,1.3717534E-2,3.1975663E0,7.194885E-1,5.159679E-1,4.9093815E1,5.5535274E0,7.977307E-2,5.918555E-1,7.9934373E0,4.058263E-1,3.9832726E-1,7.9934373E0,2.180747E0,1.26469685E-2,-3.751608E-2,7.542251E0,4.9030444E-1,1.6747316E-2,3.435014E-1,-2.2775777E-2,5.665097E-1,5.6391244E0,5.236508E0,4.536718E0,3.3536475E-2,-1.42509015E-2,7.666279E-1,4.3727234E-1,3.694988E-1,1.8988478E-1,7.579158E-1,1.5355031E0,6.894144E-1,7.800735E0,9.104704E0,-1.1241912E-2,9.674991E-1,7.207374E-1,2.4433665E-1,3.0573958E-1,1.0266646E1,-6.3568503E-3,-5.9513062E-2,6.370666E-2,1.3098109E-2,-2.0742623E-2,4.2226154E-2,6.3362174E-2,2.0060575E-2,6.716926E-2,1.0309749E-3,-6.640277E-2,-1.6572664E-2,-5.431549E-3,2.9662361E-2,-6.020558E-2,-1.2288469E-2,5.0745893E-2,2.5349393E-2,-4.152904E-2,-5.42127E-3,-2.6060972E-2,6.054157E-2,4.0182754E-2,-3.0030206E-2,-5.1248994E-2,-2.3004975E-2,-2.1645105E-2,5.5250157E-2,-5.1250573E-2,-4.6231304E-3,1.623048E-2,7.3644586E-2,-3.0801887E-2,1.3088308E-2,-5.998337E-2,-2.7234277E-2,3.2956015E-2,-1.7224321E-2,-3.6999807E-3,-5.9542786E-2,-4.2154018E-2,4.943763E-2,-5.613448E-2,2.1064987E-2],"split_indices":[1,1,1,4,4,4,4,5,8,5,5,1,2,5,1,5,5,9,0,4,9,6,1,4,7,6,4,9,5,4,2,0,0,2,5,0,7,0,6,2,4,2,0,0,9,8,5,8,9,2,6,4,4,0,8,6,8,5,4,0,0,0,0,0,0,0,0,0,0,0,0,0,0,0,0,0,0,0,0,0,0,0,0,0,0,0,0,0,0,0,0,0,0,0,0,0,0,0,0,0,0,0,0],"split_type":[0,0,0,0,0,0,0,0,0,0,0,0,0,0,0,0,0,0,0,0,0,0,0,0,0,0,0,0,0,0,0,0,0,0,0,0,0,0,0,0,0,0,0,0,0,0,0,0,0,0,0,0,0,0,0,0,0,0,0,0,0,0,0,0,0,0,0,0,0,0,0,0,0,0,0,0,0,0,0,0,0,0,0,0,0,0,0,0,0,0,0,0,0,0,0,0,0,0,0,0,0,0,0],"sum_hessian":[4.8009775E2,1.990299E2,2.8106784E2,1.3513728E2,6.389262E1,1.4707129E2,1.3399655E2,1.21090355E1,1.2302825E2,2.4672203E1,3.9220417E1,6.4015045E1,8.305624E1,1.1219968E2,2.1796867E1,3.184248E0,8.9247875E0,1.21980415E2,1.0478389E0,9.734651E0,1.4937552E1,5.0901546E0,3.4130264E1,3.2923607E1,3.1091442E1,1.2618542E1,7.04377E1,1.0130458E2,1.08951E1,1.2367831E1,9.429037E0,1.9613678E0,1.2228801E0,5.3159323E0,3.6088545E0,1.2066728E0,1.2077374E2,1.9267069E0,7.8079433E0,7.208776E0,7.7287765E0,3.1650698E0,1.9250851E0,1.5283933E0,3.260187E1,2.9500296E1,3.4233103E0,7.8680425E0,2.32234E1,5.930735E0,6.687806E0,2.7926975E1,4.2510723E1,1.0749689E0,1.0022961E2,2.4625797E0,8.43252E0,6.2202024E0,6.1476293E0,1.6134988E0,7.815538E0,3.9188879E0,1.3970447E0,2.2961073E0,1.3127474E0,1.195333E2,1.2404349E0,4.9478045E0,2.8601391E0,3.6102285E0,3.5985475E0,4.0968027E0,3.6319737E0,1.9695661E0,1.1955036E0,1.8762613E1,1.3839257E1,1.2040624E1,1.7459671E1,1.217239E0,2.2060711E0,1.3348894E0,6.533153E0,1.4824334E1,8.399065E0,3.9796307E0,1.9511045E0,5.323708E0,1.3640982E0,2.5448725E1,2.4782517E0,1.5655276E1,2.6855446E1,9.680533E1,3.4242792E0,1.1440612E0,1.3185186E0,1.4210044E0,7.0115156E0,1.696001E0,4.524201E0,4.268063E0,1.8795662E0],"tree_param":{"num_deleted":"0","num_feature":"10","num_nodes":"103","size_leaf_vector":"1"}},{"base_weights":[-5.3437874E-2,8.7547106E-1,-6.855333E-1,1.1550786E0,3.109398E-1,-1.9947854E-1,-9.760251E-1,4.6921405E-1,1.217776E0,-1.0467548E-1,6.1293745E-1,-9.9432266E-1,-1.3125065E-1,-1.0364234E0,-5.311491E-2,9.2887364E-2,9.422996E-1,6.411696E-2,8.877036E-1,2.9345903E-1,-3.6235592E-1,3.1153107E-1,8.2573235E-1,-5.139339E-3,-5.889805E-2,6.169277E-1,-2.0533116E-1,-6.9613826E-1,-1.1275924E0,-3.424208E-1,5.293454E-1,3.4071956E-2,-1.8771857E-1,5.7850182E-2,1.0434407E-2,9.429054E-1,2.2602783E-4,5.0098205E-1,-4.235808E-2,2.8599432E-2,-4.9893427E-1,7.265523E-1,-1.6506955E-1,1.8645233E-1,1.0006591E0,1.2064309E0,-1.0138022E-1,-3.1317556E-1,2.1524784E-1,-5.324469E-1,-1.0977999E0,-1.1501706E0,-6.461245E-1,2.5917828E-2,-6.7235637E-1,-2.2462983E-2,5.0928324E-2,-2.9402493E-2,2.977528E-2,5.444647E-2,1.9116836E-2,-5.9810374E-3,5.0635476E-2,-3.7683234E-2,4.8779394E-3,6.017321E-2,-1.0877465E-3,-3.3301916E-2,3.8618E-2,5.5447586E-2,-2.3072349E-2,2.1521654E-2,6.2127244E-2,1.75089E-2,7.851935E-2,-3.9988097E-2,4.8496492E-2,-3.0795127E-2,-7.2273314E-3,2.9830128E-2,-2.2604024E-2,-4.7671692E-3,-3.2592975E-2,-5.881911E-2,-1.0013024E-2,-5.9439804E-2,-4.5317285E-2,-4.5567397E-2,1.5742635E-2,-4.543161E-2,-2.0359277E-3],"categories":[],"categories_nodes":[],"categories_segments":[],"categories_sizes":[],"default_left":[0,0,0,0,0,0,0,0,0,0,0,0,0,0,0,0,0,0,0,0,0,0,0,0,0,0,0,0,0,0,0,0,0,0,0,0,0,0,0,0,0,0,0,0,0,0,0,0,0,0,0,0,0,0,0,0,0,0,0,0,0,0,0,0,0,0,0,0,0,0,0,0,0,0,0,0,0,0,0,0,0,0,0,0,0,0,0,0,0,0,0],"id":17,"left_children":[1,3,5,7,9,11,13,15,17,19,21,23,25,27,29,31,33,-1,35,37,39,41,43,-1,-1,45,47,49,51,53,55,-1,57,-1,-1,59,-1,61,-1,-1,63,65,67,69,71,73,75,77,79,81,83,85,87,-1,89,-1,-1,-1,-1,-1,-1,-1,-1,-1,-1,-1,-1,-1,-1,-1,-1,-1,-1,-1,-1,-1,-1,-1,-1,-1,-1,-1,-1,-1,-1,-1,-1,-1,-1,-1,-1],"loss_changes":[2.7791257E2,2.9897797E1,3.9567215E1,4.9252625E0,8.205175E0,5.650583E0,9.7560425E0,2.1081681E0,1.3441467E0,2.9942856E0,2.1614542E0,1.233716E0,5.631916E0,4.3383484E0,2.180631E0,1.4455401E0,6.019602E-1,0E0,1.0833092E0,3.1732974E0,2.5232873E0,3.5244558E0,2.2175941E0,0E0,0E0,4.0173545E0,4.200735E0,1.8816586E0,6.551819E-1,2.772388E0,2.5307744E0,0E0,2.2899668E0,0E0,0E0,1.3018742E0,0E0,3.4410777E0,0E0,0E0,2.4794896E0,3.375649E0,4.6595473E0,4.006939E0,1.7618427E0,1.048706E0,4.5680637E0,3.6343355E0,5.15356E0,1.4301577E0,4.6398067E-1,6.764221E-2,2.3371067E0,0E0,9.4876003E-1,0E0,0E0,0E0,0E0,0E0,0E0,0E0,0E0,0E0,0E0,0E0,0E0,0E0,0E0,0E0,0E0,0E0,0E0,0E0,0E0,0E0,0E0,0E0,0E0,0E0,0E0,0E0,0E0,0E0,0E0,0E0,0E0,0E0,0E0,0E0,0E0],"parents":[2147483647,0,0,1,1,2,2,3,3,4,4,5,5,6,6,7,7,8,8,9,9,10,10,11,11,12,12,13,13,14,14,15,15,16,16,18,18,19,19,20,20,21,21,22,22,25,25,26,26,27,27,28,28,29,29,30,30,32,32,35,35,37,37,40,40,41,41,42,42,43,43,44,44,45,45,46,46,47,47,48,48,49,49,50,50,51,51,52,52,54,54],"right_children":[2,4,6,8,10,12,14,16,18,20,22,24,26,28,30,32,34,-1,36,38,40,42,44,-1,-1,46,48,50,52,54,56,-1,58,-1,-1,60,-1,62,-1,-1,64,66,68,70,72,74,76,78,80,82,84,86,88,-1,90,-1,-1,-1,-1,-1,-1,-1,-1,-1,-1,-1,-1,-1,-1,-1,-1,-1,-1,-1,-1,-1,-1,-1,-1,-1,-1,-1,-1,-1,-1,-1,-1,-1,-1,-1,-1],"split_conditions":[5.457225E1,4.8757305E1,6.126191E1,6.3773813E0,1.9119022E1,8.75744E0,3.6526808E-1,